-0.016526365652680397
-0.027809910476207733
0.039454247802495956
-0.011962588876485825
0.102642290294170380
-0.070976153016090393
-0.070184744894504547
-0.019785104319453239
-0.029188137501478195
0.007762122899293900
-0.011150241829454899
-0.022235140204429626
-0.022604934871196747
-0.010393915697932243
0.003819325240328908
0.137734249234199524
-0.087138697504997253
-0.069451622664928436
0.090912237763404846
-0.005533816292881966
-0.037758309394121170
-0.013799599371850491
-0.087109960615634918
-0.058983024209737778
0.097173765301704407
-0.037516519427299500
0.021577944979071617
-0.019487518817186356
0.163216948509216309
0.029577115550637245
0.239279478788375854
0.055722054094076157
-0.024559224024415016
0.115028716623783112
0.045783814042806625
-0.017848704010248184
-0.022922037169337273
-0.028933856636285782
-0.007138673681765795
-0.028025306761264801
0.070206329226493835
0.052001006901264191
-0.016496362164616585
0.125877529382705688
-0.012102133594453335
0.075569130480289459
-0.024176960811018944
-0.056177314370870590
0.048536352813243866
0.020847881212830544
0.060767415910959244
0.038142345845699310
0.195615932345390320
0.021440681070089340
-0.001900529139675200
-0.024519816040992737
-0.048749029636383057
-0.036039162427186966
-0.065506063401699066
-0.111718185245990753
0.012814949266612530
0.030809899792075157
0.032332371920347214
-0.024816468358039856
0.069622918963432312
0.081157736480236053
-0.017680605873465538
-0.011369810439646244
0.015228210948407650
0.053863190114498138
-0.014251508750021458
-0.050831340253353119
-0.017566120252013206
0.066474772989749908
0.110270120203495026
-0.006089888978749514
-0.028642028570175171
0.002067202934995294
0.089384295046329498
0.073151640594005585
-0.022396413609385490
-0.081718653440475464
-0.019573520869016647
0.034934185445308685
-0.008044338785111904
-0.023701591417193413
0.186868727207183838
-0.097392886877059937
0.035974800586700439
0.057212363928556442
0.159539654850959778
-0.002949926536530256
0.005647304002195597
0.085395947098731995
-0.021303970366716385
-0.042652513831853867
0.021063107997179031
0.035533264279365540
-0.039489418268203735
-0.016380978748202324
0.010019058361649513
0.000960431585554034
0.058990627527236938
-0.009702441282570362
-0.080901205539703369
-0.063530556857585907
0.049578171223402023
-0.052832320332527161
-0.009437891654670238
-0.025737253949046135
0.043544482439756393
-0.045692283660173416
0.053414065390825272
0.157777622342109680
-0.038468938320875168
-0.046234235167503357
0.128532469272613525
0.186018899083137512
0.044189121574163437
0.082814343273639679
0.061434537172317505
0.134940564632415771
-0.078569337725639343
-0.012506390921771526
-0.003945576958358288
0.052912268787622452
-0.022647518664598465
-0.016348991543054581
0.104886882007122040
-0.023740783333778381
0.133625298738479614
-0.004144276492297649
0.132015421986579895
0.127791002392768860
0.072849944233894348
0.181370049715042114
0.183517187833786011
0.096952863037586212
-0.022298734635114670
-0.008322540670633316
0.151550471782684326
-0.022371349856257439
0.106689147651195526
-0.020323365926742554
-0.035672388970851898
0.087569974362850189
-0.021465053781867027
-0.028520412743091583
0.045037999749183655
-0.018030297011137009
-0.016731826588511467
-0.069513201713562012
0.040212981402873993
-0.016389487311244011
-0.059174753725528717
-0.065441973507404327
-0.107578955590724945
-0.058565724641084671
0.023323740810155869
0.052033491432666779
0.016060071066021919
0.179649636149406433
0.152047157287597656
-0.030274407938122749
-0.105729728937149048
-0.035041853785514832
0.031189430505037308
-0.090895131230354309
0.066618189215660095
-0.027959791943430901
-0.034334152936935425
-0.007492496632039547
0.195801615715026855
-0.055048599839210510
-0.052022159099578857
-0.015880284830927849
-0.042063456028699875
-0.099677637219429016
0.099469043314456940
-0.003974955063313246
-0.034444984048604965
-0.057751305401325226
-0.008181014098227024
-0.062881946563720703
0.004125940147787333
0.113959111273288727
-0.003497405676171184
0.072459250688552856
-0.054707542061805725
0.062806129455566406
0.125801682472229004
-0.004339489154517651
0.144028097391128540
-0.104806132614612579
-0.041874557733535767
-0.029099911451339722
-0.010903274640440941
-0.020162764936685562
0.083864271640777588
0.172981247305870056
0.081077247858047485
0.042231950908899307
-0.026744611561298370
-0.069718189537525177
0.076010450720787048
0.179303497076034546
-0.006874156184494495
-0.044148538261651993
0.080736361443996429
0.124834120273590088
-0.020646933466196060
0.085767522454261780
0.167656645178794861
0.007773272693157196
0.030313821509480476
0.195152088999748230
-0.013198054395616055
0.160974413156509399
-0.016616463661193848
0.182215675711631775
-0.045294195413589478
0.094052024185657501
0.128950282931327820
-0.064409039914608002
-0.016791490837931633
0.128762960433959961
-0.030201047658920288
0.006560869980603456
-0.015489035286009312
-0.070793829858303070
-0.007970212027430534
-0.014528542757034302
0.031306926161050797
0.048010345548391342
-0.038149569183588028
-0.015374708920717239
-0.009667728096246719
0.151729643344879150
-0.057744204998016357
0.049546539783477783
-0.021472457796335220
0.078040190041065216
-0.139559686183929443
0.090684860944747925
0.088080383837223053
-0.021281944587826729
0.070806555449962616
-0.023550108075141907
-0.030598873272538185
-0.016609992831945419
-0.030583409592509270
-0.040755465626716614
0.089984357357025146
-0.022119954228401184
-0.002091127680614591
0.021518116816878319
0.026468893513083458
-0.042008500546216965
0.042882148176431656
0.030636169016361237
0.192210555076599121
-0.028311895206570625
0.104623004794120789
0.100620605051517487
-0.005365449935197830
0.070329710841178894
0.080609068274497986
-0.031752731651067734
-0.029413430020213127
0.139818176627159119
0.117736347019672394
-0.032004538923501968
0.104632742702960968
0.198225989937782288
0.114899180829524994
-0.024219730868935585
0.198818445205688477
0.185337409377098083
-0.009540715254843235
0.230563148856163025
0.065848134458065033
0.068055145442485809
-0.047813322395086288
-0.014774988405406475
0.102704919874668121
-0.017456831410527229
0.042438626289367676
-0.011119246482849121
-0.035261109471321106
0.092360921204090118
-0.138240650296211243
-0.090140923857688904
0.072477810084819794
-0.147793591022491455
0.076578706502914429
-0.050977587699890137
-0.016241904348134995
-0.097228154540061951
0.021867388859391212
0.043381921947002411
0.057517115026712418
0.125298827886581421
-0.081987053155899048
0.024431496858596802
0.041258823126554489
0.020164448767900467
-0.042420137673616409
0.108932666480541229
0.019422203302383423
-0.018495360389351845
0.003414240200072527
0.018343856558203697
-0.001751620671711862
-0.106418788433074951
-0.011258801445364952
-0.057385295629501343
-0.014598283916711807
-0.014731893315911293
-0.034308079630136490
0.166533201932907104
0.071476973593235016
-0.036634352058172226
0.013149656355381012
-0.035107403993606567
-0.008691882714629173
0.131824985146522522
-0.018055025488138199
0.013687890022993088
0.137007221579551697
0.207206651568412781
0.115423373878002167
-0.047689046710729599
-0.070084795355796814
-0.037957116961479187
-0.026831842958927155
0.064998500049114227
0.101957313716411591
0.044667005538940430
-0.090866297483444214
-0.091866694390773773
-0.023019783198833466
-0.049180228263139725
-0.028341725468635559
0.105327777564525604
0.085471503436565399
0.089542262256145477
0.137320846319198608
0.006976258475333452
0.110547289252281189
0.032468080520629883
0.038401179015636444
0.065782971680164337
-0.066890232264995575
0.070209130644798279
0.139351919293403625
0.095603398978710175
0.081476025283336639
0.030797185376286507
0.081881292164325714
0.093859277665615082
-0.032612249255180359
0.143384590744972229
0.081154771149158478
-0.031345967203378677
-0.070359922945499420
-0.116331174969673157
0.032147243618965149
0.013342509046196938
-0.033017992973327637
0.021698914468288422
0.155667990446090698
0.111555807292461395
-0.051050614565610886
-0.007958327420055866
0.218108981847763062
-0.064011402428150177
0.134303227066993713
0.047690231353044510
0.177860751748085022
0.032727301120758057
-0.043535415083169937
0.107956245541572571
-0.037044115364551544
0.142868325114250183
0.037459854036569595
-0.014304553158581257
0.007882893085479736
0.102845512330532074
-0.003075835993513465
0.126579418778419495
0.031524304300546646
-0.050088338553905487
-0.035866633057594299
0.144310727715492249
0.126327976584434509
-0.014212382957339287
0.045893002301454544
0.100239783525466919
0.019764361903071404
0.046515677124261856
0.036734253168106079
-0.082756944000720978
0.087553739547729492
-0.024142922833561897
-0.068212725222110748
0.121836870908737183
0.032831620424985886
-0.061215884983539581
-0.022000910714268684
0.098211206495761871
-0.015510704368352890
0.023136796429753304
0.048223119229078293
0.120278611779212952
0.168420925736427307
0.025148039683699608
-0.055274065583944321
-0.015393658541142941
-0.081661507487297058
0.008759564720094204
0.039808817207813263
-0.022428935393691063
-0.062592670321464539
-0.057143613696098328
-0.009549154900014400
-0.042348768562078476
0.054940216243267059
-0.025532215833663940
-0.088869653642177582
-0.075623750686645508
0.085012696683406830
0.016816921532154083
0.034614492207765579
-0.048772834241390228
0.001294466317631304
-0.050717800855636597
-0.021139657124876976
0.071874491870403290
0.143385007977485657
-0.046324994415044785
-0.073738008737564087
0.123532451689243317
-0.032013390213251114
-0.005338607355952263
0.131114125251770020
-0.065579347312450409
0.196950390934944153
0.050296600908041000
0.025857049971818924
0.176656395196914673
0.085617423057556152
0.050465174019336700
0.027353979647159576
0.025451552122831345
0.003481416963040829
0.020917998626828194
-0.042922522872686386
-0.039603792130947113
0.112464554607868195
0.083626553416252136
0.041983313858509064
0.038729939609766006
0.122448392212390900
0.021395629271864891
0.003248761873692274
0.221570312976837158
0.054262358695268631
0.091790795326232910
-0.018493374809622765
-0.060893572866916656
0.202582716941833496
0.156335011124610901
-0.077394202351570129
0.022750630974769592
0.158755183219909668
-0.027456473559141159
0.130418360233306885
-0.011856569908559322
0.052120178937911987
0.109738573431968689
-0.021930523216724396
0.157865986227989197
0.096633128821849823
0.012514648027718067
-0.011796175502240658
-0.089215300977230072
0.045637663453817368
-0.040904052555561066
-0.022344969213008881
-0.042067769914865494
0.040588937699794769
0.181899443268775940
-0.089882358908653259
0.017193505540490150
0.147148922085762024
0.191100448369979858
-0.033079702407121658
0.113426961004734039
0.066515848040580750
0.018057292327284813
-0.062113028019666672
0.128999352455139160
0.003105731680989265
-0.078653328120708466
-0.012992659583687782
0.055744603276252747
0.095252186059951782
0.125721707940101624
-0.009791943244636059
0.064830146729946136
0.145107641816139221
-0.018570395186543465
