0.121240399777889252
0.089965663850307465
0.012654912658035755
-0.061393495649099350
0.098560966551303864
0.116503320634365082
-0.060294013470411301
-0.192522689700126648
0.074555136263370514
0.178316652774810791
-0.086872607469558716
-0.155881434679031372
-0.142054170370101929
-0.126103267073631287
0.040463514626026154
-0.141659468412399292
0.017715621739625931
0.111158460378646851
-0.070983521640300751
-0.041994277387857437
-0.146158725023269653
-0.092612504959106445
0.028036111965775490
-0.199953258037567139
-0.031220300123095512
-0.073600471019744873
-0.059102933853864670
0.073007933795452118
-0.061250641942024231
0.048887193202972412
-0.004586316179484129
0.016126267611980438
0.030006177723407745
-0.066236659884452820
-0.031039133667945862
0.066759660840034485
-0.022676657885313034
0.064171619713306427
0.100475259125232697
-0.045001376420259476
-0.047410506755113602
0.055003002285957336
-0.131026640534400940
-0.130327194929122925
0.072672501206398010
0.146604835987091064
-0.095637895166873932
0.164763033390045166
-0.043041337281465530
0.072519697248935699
-0.046874165534973145
0.080220572650432587
0.080131657421588898
-0.017349168658256531
0.147723376750946045
0.103158369660377502
-0.126936554908752441
-0.059791300445795059
-0.043701451271772385
-0.022071434184908867
0.049238823354244232
0.165377840399742126
-0.136000886559486389
0.018048590049147606
