0.050102576613426208 0.060958612710237503 -0.077522881329059601 -0.102107584476470947 0.077615365386009216 -0.125751554965972900 -0.025434566661715508 0.013828199356794357 -0.096229523420333862 0.081155128777027130
0.038292672485113144 0.119873620569705963 0.133251950144767761 -0.020624881610274315 0.028308156877756119 -0.175852715969085693 -0.346617877483367920 0.030322002246975899 0.119861260056495667 0.107918314635753632
0.078202426433563232 0.006856244523078203 0.058745890855789185 0.011148498393595219 -0.486735969781875610 0.286018252372741699 0.129260569810867310 -0.014657755382359028 -0.240717813372612000 -0.095056317746639252
-0.120199061930179596 0.171342194080352783 0.159406617283821106 -0.164239093661308289 -0.310481071472167969 -0.006002272013574839 0.185489922761917114 -0.464674174785614014 0.115886315703392029 0.052410576492547989
-0.210063159465789795 0.013855540193617344 0.021913310512900352 0.023681668564677238 0.019898552447557449 0.028801159933209419 0.029531363397836685 0.031006319448351860 -0.552503585815429688 0.022499915212392807
-0.147198930382728577 0.155625283718109131 -0.190477147698402405 -0.160124257206916809 -0.059536028653383255 0.074032761156558990 -0.069917917251586914 -0.010918444022536278 -0.077748343348503113 -0.013286116532981396
0.138005033135414124 0.075317829847335815 0.133100986480712891 -0.240410134196281433 -0.411046266555786133 -0.261917591094970703 0.205464467406272888 0.119719646871089935 -0.009599377401173115 0.118471309542655945
0.040431182831525803 0.280236542224884033 -0.324440956115722656 -0.121620915830135345 0.116316862404346466 0.006236474961042404 -0.224904924631118774 -0.113884240388870239 0.288234740495681763 -0.259202778339385986
-0.074678294360637665 -0.037895347923040390 -0.009657297283411026 -0.029512092471122742 -0.063191369175910950 0.034260746091604233 0.109889499843120575 -0.090439893305301666 -0.001616000430658460 -0.048802748322486877
-0.129185482859611511 -0.018225535750389099 0.155404463410377502 0.014773886650800705 0.052103240042924881 -0.125985175371170044 -0.122916407883167267 -0.483870953321456909 0.309224307537078857 -0.118215166032314301
-0.087327428162097931 -0.105062410235404968 0.015215996652841568 0.016422552987933159 -0.062702380120754242 0.083716638386249542 -0.088320419192314148 -0.029683763161301613 0.005913662258535624 0.026704611256718636
-0.185602903366088867 0.153492227196693420 0.277350664138793945 -0.086831986904144287 -0.059197790920734406 -0.018014665693044662 -0.247570440173149109 0.266989856958389282 -0.055675130337476730 -0.366628974676132202
-0.136124566197395325 0.113442838191986084 0.109439335763454437 -0.442339777946472168 0.093244053423404694 0.032177820801734924 -0.317229866981506348 -0.013981967233121395 0.132274374365806580 0.110519289970397949
0.027982499450445175 -0.025856129825115204 0.053255755454301834 -0.043138615787029266 0.055288065224885941 0.026784744113683701 -0.023663645610213280 -0.089580684900283813 0.087287068367004395 0.036823928356170654
-0.488689333200454712 0.138470798730850220 0.094120264053344727 -0.122210822999477386 -0.004364709369838238 0.261393576860427856 -0.234318047761917114 0.024954324588179588 -0.261385321617126465 0.106861412525177002
-0.249983772635459900 0.099151022732257843 -0.262114435434341431 0.008647871203720570 0.068978451192378998 0.070560283958911896 -0.132814198732376099 0.089110158383846283 0.173823639750480652 0.037392981350421906
0.144178658723831177 0.010011617094278336 0.027243090793490410 -0.163137659430503845 0.044871091842651367 -0.166208341717720032 -0.186031803488731384 -0.014844589866697788 0.038863115012645721 -0.134414777159690857
-0.127247363328933716 0.311704486608505249 0.055803015828132629 -0.199186936020851135 -0.166623756289482117 -0.212361022830009460 -0.056241087615489960 -0.345028579235076904 0.345331698656082153 0.056690271943807602
-0.252296358346939087 -0.276354640722274780 -0.061391513794660568 0.094552524387836456 -0.113564953207969666 0.111748278141021729 0.087274871766567230 0.029652211815118790 -0.176426678895950317 0.291422456502914429
0.087541192770004272 -0.191558197140693665 -0.091765969991683960 0.006497288588434458 -0.479876160621643066 0.192839607596397400 0.127644479274749756 0.060972318053245544 0.056902818381786346 -0.124266795814037323
-0.114012077450752258 -0.108776710927486420 -0.002038952894508839 -0.156322151422500610 -0.070976957678794861 -0.130142509937286377 0.022660195827484131 0.019098501652479172 0.062076590955257416 -0.019239321351051331
0.004398311022669077 0.088973179459571838 -0.129678189754486084 0.032066628336906433 0.096914008259773254 -0.250193178653717041 -0.016528718173503876 0.215124353766441345 -0.517316937446594238 0.212356552481651306
0.086090259253978729 0.148697972297668457 0.084899984300136566 0.182335764169692993 -0.352637469768524170 -0.122935459017753601 -0.093103624880313873 -0.263528376817703247 0.093798749148845673 0.125064983963966370
0.096449837088584900 -0.343964159488677979 0.091525398194789886 0.017783552408218384 -0.086537644267082214 -0.134848684072494507 0.047414425760507584 0.126917406916618347 -0.188649922609329224 0.286962360143661499
-0.490952700376510620 -0.132244944572448730 0.198642909526824951 -0.109416604042053223 0.018086312338709831 0.211436480283737183 0.206858053803443909 -0.125383481383323669 0.079892158508300781 -0.155441522598266602
0.209866449236869812 -0.146356776356697083 0.287099301815032959 -0.064796559512615204 -0.155206844210624695 -0.348556876182556152 0.224855542182922363 -0.146055489778518677 -0.146607175469398499 -0.070506416261196136
-0.069908857345581055 -0.024237720295786858 0.247328937053680420 -0.097099781036376953 0.088617175817489624 -0.237734556198120117 -0.587981164455413818 -0.203380003571510315 0.162176772952079773 0.141147121787071228
-0.175727009773254395 0.222753673791885376 -0.058235835283994675 -0.314645469188690186 -0.320966869592666626 -0.057557921856641769 0.149109080433845520 0.283299356698989868 -0.159722417593002319 0.100027471780776978
0.284055888652801514 -0.446549743413925171 0.070144131779670715 -0.177406132221221924 0.048098426312208176 -0.164928600192070007 0.212961852550506592 -0.066305413842201233 -0.295486479997634888 -0.131818518042564392
0.043356057256460190 0.006846618838608265 0.080898433923721313 0.102493420243263245 0.105877794325351715 -0.050278551876544952 0.092879556119441986 0.102031484246253967 -0.454606115818023682 -0.483357936143875122
-0.206162542104721069 -0.463470190763473511 0.074852600693702698 -0.218331947922706604 0.154323667287826538 -0.032813545316457748 0.166648775339126587 -0.113442078232765198 -0.176651820540428162 -0.391202628612518311
-0.052444562315940857 -0.232309713959693909 0.313010036945343018 0.065497942268848419 0.039533492177724838 -0.021550452336668968 0.113039404153823853 -0.230482265353202820 -0.389384120702743530 -0.323941349983215332
0.157898545265197754 -0.159035071730613708 0.106172695755958557 -0.262890487909317017 0.055509861558675766 -0.033358797430992126 -0.117370255291461945 0.084169231355190277 0.026449477300047874 0.010320601053535938
0.099423170089721680 0.015116260387003422 -0.299179464578628540 0.227728962898254395 -0.366016536951065063 0.167105525732040405 -0.026994422078132629 -0.387162834405899048 0.155788242816925049 -0.091043323278427124
0.078296057879924774 -0.121361814439296722 0.066884890198707581 0.171927198767662048 -0.462306469678878784 0.171604230999946594 0.087589129805564880 -0.082897983491420746 -0.417453259229660034 0.125121146440505981
0.092201650142669678 -0.080139644443988800 0.093895576894283295 -0.382748126983642578 -0.051110170781612396 -0.004968244582414627 0.103537671267986298 0.405298560857772827 0.091910049319267273 0.056594416499137878
0.074444197118282318 -0.096215449273586273 0.059627007693052292 -0.029632069170475006 -0.096205495297908783 0.043012473732233047 -0.048837393522262573 -0.120930492877960205 -0.126554548740386963 -0.071343824267387390
0.053478829562664032 0.138747885823249817 0.241627216339111328 0.142947807908058167 -0.063991948962211609 0.140530541539192200 -0.349712520837783813 -0.079256191849708557 0.087368331849575043 -0.402300626039505005
-0.087028145790100098 -0.065557911992073059 -0.043163508176803589 -0.103703938424587250 0.031754128634929657 -0.012950404547154903 0.004315343219786882 -0.006690214388072491 -0.057116325944662094 0.020934864878654480
-0.051210459321737289 -0.074245259165763855 -0.019596479833126068 0.004717236384749413 -0.065511316061019897 0.052712392061948776 0.016499631106853485 -0.098852567374706268 -0.013661600649356842 0.033538956195116043
0.038328632712364197 -0.260622441768646240 0.179145067930221558 0.165535435080528259 0.155066281557083130 -0.101213566958904266 0.118403807282447815 0.071277007460594177 -0.454350352287292480 0.027097608894109726
-0.027503291144967079 -0.387268602848052979 0.002486779820173979 0.124596282839775085 0.049666151404380798 0.001789410016499460 -0.318163096904754639 -0.026110744103789330 -0.073988065123558044 -0.285673230886459351
-0.250301599502563477 0.293986529111862183 0.139648243784904480 0.085092827677726746 -0.014730659313499928 -0.418161660432815552 0.014184435829520226 -0.090444028377532959 0.184749305248260498 0.055727712810039520
-0.071112357079982758 -0.246409997344017029 0.076746210455894470 0.063969746232032776 0.190718293190002441 0.214243233203887939 0.111081793904304504 -0.039912339299917221 0.143745139241218567 -0.346581250429153442
-0.065218918025493622 -0.016737438738346100 -0.013711842708289623 -0.010405531153082848 0.056548789143562317 0.029036955907940865 -0.051739957183599472 -0.058448143303394318 -0.018635340034961700 0.023987283930182457
0.157221138477325439 0.064322665333747864 0.097517400979995728 -0.079588085412979126 0.016549836844205856 -0.515741765499114990 -0.070735044777393341 -0.121662572026252747 0.180839076638221741 -0.242976114153862000
0.073354817926883698 -0.012370393611490726 -0.117516405880451202 0.051415894180536270 0.041892219334840775 -0.052351318299770355 0.052106022834777832 0.020554888993501663 -0.014502118341624737 0.077505290508270264
0.106288045644760132 0.114668004214763641 0.027662616223096848 0.191627383232116699 -0.025103308260440826 0.093646951019763947 -0.344510555267333984 -0.268934100866317749 0.111401468515396118 0.093720793724060059
0.040018413215875626 -0.265932530164718628 -0.079253010451793671 0.049276493489742279 0.178539648652076721 -0.365530848503112793 -0.003942614421248436 0.319889992475509644 0.004387765657156706 -0.183420374989509583
-0.067930184304714203 0.110699422657489777 -0.163591533899307251 0.017470397055149078 0.106637910008430481 0.080075517296791077 -0.213663548231124878 0.149376884102821350 0.134577751159667969 -0.016365829855203629
0.144610166549682617 -0.295864343643188477 0.171425327658653259 -0.165178626775741577 0.364888906478881836 -0.406172841787338257 -0.241528987884521484 -0.059609539806842804 0.123403213918209076 -0.217348575592041016
0.094390712678432465 0.142164677381515503 0.115678437054157257 -0.372597098350524902 -0.050466299057006836 -0.217457622289657593 -0.317362368106842041 -0.095588058233261108 0.122327961027622223 0.124724432826042175
-0.006591230630874634 -0.502388656139373779 -0.141439527273178101 -0.041200641542673111 0.197208091616630554 -0.083264745771884918 0.234112262725830078 0.118307307362556458 -0.099280521273612976 -0.328527122735977173
0.192477807402610779 -0.358738332986831665 -0.124267332255840302 0.059659607708454132 0.089657358825206757 0.157830834388732910 -0.161947935819625854 0.101431466639041901 -0.127601265907287598 -0.197947815060615540
0.166542753577232361 0.135601088404655457 0.294468462467193604 -0.385732561349868774 -0.189633548259735107 -0.153516307473182678 0.239838942885398865 -0.362573921680450439 0.133919447660446167 -0.181000053882598877
0.093039855360984802 0.083752468228340149 0.029461676254868507 -0.062387712299823761 -0.022895189002156258 0.047762099653482437 0.046963434666395187 -0.020865220576524734 0.006615485996007919 0.070411518216133118
0.070548310875892639 0.093265168368816376 0.048003725707530975 0.168614849448204041 0.120306216180324554 -0.291982829570770264 -0.267421483993530273 0.031635161489248276 0.066562078893184662 0.062867894768714905
-0.231792211532592773 0.217634260654449463 0.401644051074981689 -0.187577247619628906 -0.118488050997257233 0.167661607265472412 -0.193857818841934204 -0.133753135800361633 -0.097551293671131134 -0.188919588923454285
-0.076024636626243591 -0.208958595991134644 0.383105397224426270 -0.118948139250278473 -0.405734270811080933 0.052902027964591980 0.053117047995328903 -0.117296405136585236 0.147533014416694641 -0.343420982360839844
0.232628256082534790 0.092449955642223358 0.065327718853950500 0.070538125932216644 -0.130559653043746948 0.097833767533302307 -0.158054575324058533 0.110698372125625610 -0.319392204284667969 -0.114217512309551239
-0.030996184796094894 -0.146332219243049622 0.121861636638641357 -0.061341315507888794 -0.000235398038057610 -0.403305828571319580 0.094797492027282715 0.083960011601448059 -0.193582087755203247 0.254604816436767578
-0.331654906272888184 0.133441656827926636 -0.024645823985338211 0.042382851243019104 -0.136513337492942810 -0.197077065706253052 -0.153761506080627441 -0.041709803044795990 0.150403916835784912 0.264742106199264526
0.013188293203711510 0.104812569916248322 0.101167440414428711 -0.074608564376831055 0.224221855401992798 -0.236196294426918030 -0.057692285627126694 -0.228965610265731812 -0.200049176812171936 0.195308059453964233
-0.134574174880981445 -0.055683858692646027 -0.036966294050216675 0.270407438278198242 -0.250063359737396240 -0.062180846929550171 -0.153536990284919739 -0.207857578992843628 0.101924806833267212 -0.226806133985519409
0.071017652750015259 0.096889168024063110 -0.211459606885910034 -0.254488527774810791 -0.201222553849220276 -0.465333670377731323 0.145148321986198425 -0.016906391829252243 0.085624419152736664 0.098655514419078827
0.135596126317977905 0.176139399409294128 -0.214117825031280518 -0.009143652394413948 0.114390693604946136 0.085042007267475128 0.068775214254856110 -0.015322351828217506 -0.444150209426879883 -0.055604260414838791
-0.069020569324493408 -0.058800976723432541 0.095528811216354370 0.109393037855625153 -0.015259088948369026 -0.015283711254596710 -0.005355944857001305 0.080662645399570465 -0.108107648789882660 -0.080532327294349670
-0.096909992396831512 0.010192554444074631 0.085894130170345306 0.075196892023086548 0.013333487324416637 0.097404085099697113 -0.089337028563022614 -0.013883292675018311 -0.052729725837707520 -0.097779974341392517
-0.282644718885421753 0.146829918026924133 -0.325866729021072388 0.211254462599754333 -0.109115980565547943 -0.302396953105926514 -0.169854536652565002 -0.103825554251670837 0.013413370586931705 0.199387580156326294
0.103738613426685333 0.101073622703552246 0.050840005278587341 -0.340298116207122803 0.114650152623653412 -0.153153166174888611 -0.258904010057449341 -0.224266737699508667 0.105264447629451752 -0.076006375253200531
0.035948134958744049 0.010851071216166019 -0.066143639385700226 0.027779132127761841 -0.076390676200389862 -0.009295294992625713 -0.016003580763936043 0.062441058456897736 -0.095565423369407654 -0.092600330710411072
-0.247824817895889282 -0.337240189313888550 0.108438491821289062 0.033361341804265976 -0.107477582991123199 -0.076380483806133270 0.041033096611499786 0.339535117149353027 -0.150997489690780640 -0.135526373982429504
0.307246029376983643 0.067642442882061005 -0.231753244996070862 0.057258430868387222 -0.254305869340896606 -0.011102505028247833 0.087153457105159760 0.053267620503902435 -0.305740177631378174 0.146812111139297485
-0.440324425697326660 0.114360041916370392 0.041146703064441681 0.104106821119785309 0.052910879254341125 0.103869132697582245 0.067993268370628357 0.098499648272991180 -0.330480009317398071 -0.245415061712265015
-0.025818521156907082 -0.362927615642547607 -0.242164939641952515 -0.118769846856594086 0.366017073392868042 -0.161203697323799133 -0.243220448493957520 -0.099794879555702209 0.095872752368450165 -0.452792435884475708
0.157385006546974182 0.170419886708259583 -0.246649414300918579 -0.310220867395401001 -0.343920290470123291 0.058351341634988785 0.248886764049530029 -0.211243808269500732 -0.173839718103408813 0.246984943747520447
-0.056897111237049103 0.050466265529394150 0.015216241590678692 0.084559746086597443 -0.058926951140165329 -0.008439912460744381 -0.001627216115593910 -0.056998305022716522 0.022372793406248093 0.036733403801918030
-0.066238828003406525 -0.000741497904527932 -0.018844516947865486 -0.061871584504842758 0.112127341330051422 -0.052718013525009155 -0.140866890549659729 -0.110833495855331421 0.058984871953725815 -0.094317972660064697
0.143259048461914062 -0.330837190151214600 0.121207147836685181 0.102797813713550568 0.087501011788845062 -0.006131988018751144 0.099664516746997833 0.065227225422859192 -0.384278684854507446 -0.233769088983535767
0.048965711146593094 -0.137201547622680664 0.126498579978942871 0.103826470673084259 0.081898555159568787 -0.255378276109695435 -0.254402786493301392 -0.071388699114322662 -0.097924150526523590 0.183690175414085388
0.066487401723861694 0.064435862004756927 0.075113303959369659 0.091384239494800568 0.052820257842540741 -0.108658693730831146 0.006943979766219854 -0.032068088650703430 -0.003474726807326078 0.039721667766571045
0.007285887841135263 0.146046459674835205 0.141711965203285217 0.208980351686477661 -0.411303251981735229 0.148915380239486694 -0.074159093201160431 -0.299566715955734253 -0.002174643101170659 -0.117487750947475433
0.036706957966089249 -0.014151716604828835 -0.100036375224590302 0.086340785026550293 -0.033263634890317917 0.036248337477445602 -0.042812786996364594 -0.010803953744471073 0.051096037030220032 0.061178393661975861
0.044660307466983795 0.009809207171201706 -0.169364213943481445 -0.127552688121795654 -0.176723644137382507 -0.084145247936248779 0.166187390685081482 0.302138686180114746 -0.385932385921478271 0.126775890588760376
-0.072792708873748779 0.002955413423478603 -0.092935726046562195 -0.096959322690963745 0.095985062420368195 0.064447894692420959 -0.089735329151153564 -0.075268760323524475 -0.052687589079141617 -0.006475618574768305
-0.041071597486734390 0.068257488310337067 0.115600362420082092 -0.018912097439169884 -0.051385592669248581 -0.027528936043381691 -0.004809627775102854 0.055693726986646652 0.016056492924690247 0.087851010262966156
-0.197268724441528320 0.074478857219219208 -0.077376358211040497 -0.146027594804763794 0.299353897571563721 -0.263093382120132446 0.238771542906761169 -0.055324621498584747 -0.067379988729953766 -0.210414320230484009
0.080539137125015259 0.105011187493801117 0.143297672271728516 0.108159013092517853 -0.340565413236618042 0.112643450498580933 -0.319766491651535034 -0.129990041255950928 0.030556492507457733 0.170855283737182617
-0.414583772420883179 -0.176394656300544739 -0.142971217632293701 0.313346743583679199 -0.008257306180894375 -0.201624512672424316 0.119266390800476074 0.323222637176513672 -0.103157050907611847 -0.240045621991157532
0.169819056987762451 -0.267750233411788940 -0.417528718709945679 -0.134679034352302551 -0.129765897989273071 0.164388775825500488 0.233457773923873901 0.227274313569068909 -0.054363496601581573 0.042912632226943970
-0.120561607182025909 -0.295974165201187134 -0.255323559045791626 -0.014367575757205486 0.233119025826454163 -0.144017502665519714 0.109627366065979004 -0.120527870953083038 -0.251954913139343262 0.013056584633886814
0.129689812660217285 0.170460090041160583 0.128639459609985352 0.075666382908821106 0.048690758645534515 -0.189627408981323242 -0.262390583753585815 -0.202521264553070068 0.076415866613388062 -0.149539530277252197
0.049469720572233200 -0.108807817101478577 -0.039580464363098145 0.122176893055438995 0.051439121365547180 0.114663779735565186 -0.307718068361282349 0.126476556062698364 -0.139659211039543152 -0.222261562943458557
-0.220806390047073364 0.167434379458427429 -0.128096893429756165 -0.122903704643249512 -0.020196007564663887 0.246543809771537781 0.142000362277030945 -0.404097974300384521 -0.016468249261379242 -0.005534997209906578
-0.018283927813172340 0.010116843506693840 0.012678217142820358 -0.008086718618869781 0.017015835270285606 -0.063762634992599487 0.085436329245567322 0.057995356619358063 0.094644904136657715 0.055692195892333984
0.052270222455263138 -0.086304366588592529 -0.005932049825787544 0.037145305424928665 0.038732048124074936 0.047302462160587311 -0.098380886018276215 0.011241271160542965 0.019582061097025871 -0.045331791043281555
0.093479439616203308 0.144630178809165955 -0.291293531656265259 0.100630052387714386 -0.489820867776870728 -0.069968104362487793 -0.119207561016082764 -0.269852906465530396 0.015723273158073425 0.181550815701484680
0.064094595611095428 0.108876802027225494 -0.080481424927711487 0.065246902406215668 0.077766485512256622 -0.331318229436874390 0.091387741267681122 -0.045447479933500290 -0.113747656345367432 0.118788875639438629
-0.061268229037523270 -0.113341107964515686 0.041906397789716721 -0.057089373469352722 -0.045217454433441162 0.018647721037268639 -0.121635049581527710 0.062438853085041046 -0.086157225072383881 -0.006587530951946974
0.060749389231204987 -0.028780957683920860 -0.059071790426969528 -0.075468577444553375 -0.018332595005631447 -0.030974689871072769 -0.062928691506385803 0.073667019605636597 0.073611341416835785 -0.113867558538913727
0.356611490249633789 -0.128341540694236755 -0.084442503750324249 0.054976943880319595 -0.023997403681278229 0.092345304787158966 0.253831267356872559 -0.182914927601814270 -0.602911889553070068 -0.422025352716445923
0.278340160846710205 0.119544573128223419 -0.089578628540039062 -0.375649213790893555 -0.378117352724075317 0.031475611031055450 0.106337085366249084 -0.116057813167572021 -0.341704934835433960 0.172086372971534729
-0.300680965185165405 0.180242195725440979 -0.064076527953147888 -0.056257836520671844 0.198505565524101257 -0.196330979466438293 0.159880101680755615 0.214280813932418823 -0.142055243253707886 -0.391088038682937622
-0.003601335221901536 0.071867689490318298 0.068310648202896118 -0.007187736220657825 -0.044964615255594254 -0.082514256238937378 -0.077608630061149597 -0.050372205674648285 -0.002976464806124568 0.005069373641163111
-0.099876843392848969 -0.215039834380149841 0.244488298892974854 -0.262540340423583984 -0.208793595433235168 0.291731387376785278 -0.151775345206260681 0.099214293062686920 -0.162604644894599915 0.032170768827199936
0.021933587267994881 -0.110539942979812622 0.327585428953170776 -0.270709484815597534 -0.183727577328681946 -0.287231713533401489 0.182246565818786621 -0.210929632186889648 0.151192665100097656 -0.123655281960964203
-0.058884806931018829 -0.633258998394012451 0.051034756004810333 0.087399177253246307 0.058089420199394226 0.060623288154602051 -0.007372297346591949 0.095653221011161804 0.145033434033393860 -0.347975522279739380
0.030208799988031387 -0.018822045996785164 0.298504590988159180 -0.095895215868949890 -0.021905425935983658 -0.123654700815677643 -0.372883617877960205 -0.104278109967708588 -0.178349301218986511 0.002067082561552525
-0.102165490388870239 0.038194458931684494 0.120088256895542145 -0.148942306637763977 0.054189577698707581 0.140853419899940491 0.125257074832916260 -0.229119658470153809 -0.255393266677856445 -0.028859576210379601
-0.091845571994781494 0.003987112548202276 -0.015513011254370213 0.095956124365329742 -0.045077990740537643 -0.112793199717998505 0.046797912567853928 -0.024417683482170105 -0.033918317407369614 0.023690288886427879
0.090196959674358368 -0.416159629821777344 0.086654409766197205 0.102999098598957062 0.089272134006023407 0.080730274319648743 0.093094035983085632 0.071542382240295410 -0.039518717676401138 -0.139855086803436279
-0.018756333738565445 0.106209903955459595 0.196281790733337402 0.097803615033626556 -0.303201258182525635 -0.396672517061233521 0.157929956912994385 -0.156913742423057556 0.055645607411861420 0.018553797155618668
-0.130113959312438965 0.201236277818679810 -0.152909025549888611 0.196295782923698425 -0.129730984568595886 0.041226547211408615 -0.409390866756439209 -0.196815118193626404 0.052721396088600159 0.223672032356262207
0.228896364569664001 -0.245604887604713440 -0.093179084360599518 0.112294599413871765 0.320938199758529663 -0.443495482206344604 -0.305403947830200195 -0.174994558095932007 0.063961848616600037 -0.015617528930306435
-0.010298283770680428 0.043072823435068130 0.028916833922266960 0.078420788049697876 -0.110730946063995361 -0.017060149461030960 -0.024691928178071976 0.067125052213668823 -0.041883658617734909 -0.066127263009548187
-0.093797631561756134 -0.069594606757164001 -0.073139816522598267 -0.184066802263259888 0.023489691317081451 -0.138394013047218323 0.140210628509521484 -0.021562974900007248 0.030708502978086472 -0.023154791444540024
-0.188545972108840942 0.194546788930892944 -0.110630780458450317 0.136001959443092346 0.148614868521690369 0.048531871289014816 -0.332742035388946533 -0.057911399751901627 -0.259787917137145996 0.369936496019363403
-0.422366499900817871 -0.053703006356954575 0.088514164090156555 0.075474001467227936 0.137419804930686951 0.069679744541645050 0.193863078951835632 -0.214387193322181702 -0.313081979751586914 -0.033600538969039917
-0.037903483957052231 0.115225732326507568 -0.053914401680231094 -0.095685832202434540 0.242658719420433044 0.141824111342430115 -0.355991512537002563 -0.373336195945739746 0.125647783279418945 0.117931440472602844
0.096965633332729340 -0.136597201228141785 0.155934706330299377 -0.274938702583312988 0.115854397416114807 0.091862544417381287 -0.222013622522354126 0.111991308629512787 -0.188160255551338196 -0.028436644002795219
0.066628769040107727 -0.327841430902481079 0.120914891362190247 -0.066688328981399536 -0.135243937373161316 -0.130008041858673096 0.196272313594818115 -0.281644910573959351 0.133610725402832031 -0.249893873929977417
0.007173532620072365 -0.494073927402496338 0.060330092906951904 0.101731993257999420 0.065126992762088776 0.125710502266883850 0.061829768121242523 0.038024142384529114 0.066333852708339691 -0.579244017601013184
-0.003922342788428068 0.222269073128700256 0.097923167049884796 0.110628403723239899 -0.143470391631126404 -0.264133125543594360 -0.002326720161363482 0.244495853781700134 -0.266307979822158813 -0.233221009373664856
-0.079881772398948669 -0.043123163282871246 -0.043885048478841782 0.028516013175249100 -0.009561800397932529 -0.057618919759988785 -0.070609115064144135 -0.001727941096760333 -0.005170288961380720 -0.043856687843799591
-0.200155586004257202 0.301556468009948730 0.214993879199028015 -0.076725095510482788 -0.450610846281051636 -0.242440626025199890 0.535892665386199951 -0.079387955367565155 -0.220411345362663269 -0.052187170833349228
-0.439893990755081177 0.093593239784240723 0.200734272599220276 0.070270687341690063 0.116348072886466980 0.208495795726776123 -0.124411411583423615 -0.222050383687019348 0.085772246122360229 0.072516068816184998
0.034065950661897659 0.047658212482929230 0.005089911632239819 0.072414278984069824 0.072736144065856934 0.062742866575717926 0.053245894610881805 -0.043633714318275452 0.100322425365447998 -0.024278072640299797
-0.110242821276187897 -0.072836793959140778 -0.091361500322818756 0.032505292445421219 -0.060850150883197784 -0.013785121962428093 -0.008766687475144863 -0.026813525706529617 0.060117591172456741 0.114487938582897186
0.071457020938396454 -0.302341580390930176 -0.392317026853561401 0.062520854175090790 0.005773453041911125 -0.279885053634643555 0.141613900661468506 0.173222765326499939 0.047368846833705902 0.140969008207321167
-0.361768364906311035 0.133670777082443237 0.147774249315261841 -0.050782389938831329 -0.292746156454086304 0.295324206352233887 -0.259286016225814819 -0.155622482299804688 -0.152911096811294556 0.030775748193264008
0.253966212272644043 -0.118336305022239685 0.092351622879505157 0.105994746088981628 0.071701236069202423 -0.301911145448684692 0.123953670263290405 -0.151043549180030823 -0.313146859407424927 0.147721216082572937
0.142983004450798035 0.076365403831005096 -0.207754209637641907 0.260664612054824829 -0.312713235616683960 -0.056004900485277176 -0.096482902765274048 -0.212376937270164490 0.162937834858894348 0.090190365910530090
-0.558087170124053955 -0.003438918385654688 -0.152922958135604858 0.042112216353416443 0.197456791996955872 0.074812717735767365 0.093517579138278961 -0.136088952422142029 -0.024319440126419067 -0.125444710254669189
0.014578123576939106 -0.293327391147613525 0.080832026898860931 0.440805882215499878 -0.069575697183609009 -0.298334896564483643 0.108045034110546112 -0.178418412804603577 0.240826487541198730 -0.343014061450958252
0.090014353394508362 -0.038447700440883636 0.137554079294204712 -0.085038512945175171 0.120858199894428253 0.172551929950714111 -0.243946105241775513 0.138853222131729126 -0.230432942509651184 -0.312791973352432251
0.145464748144149780 0.106865003705024719 -0.146986961364746094 -0.189030647277832031 0.304939925670623779 -0.150150060653686523 0.120228141546249390 -0.099620528519153595 0.124694034457206726 -0.210790961980819702
-0.152422681450843811 -0.120554022490978241 -0.203246429562568665 -0.227279841899871826 0.372745186090469360 0.254874557256698608 -0.074750393629074097 -0.092583075165748596 -0.201332658529281616 -0.032630492001771927
-0.537241518497467041 -0.316692590713500977 -0.305193454027175903 0.165917590260505676 -0.049540620297193527 0.102579899132251740 0.238137200474739075 0.031469326466321945 0.222556725144386292 -0.309725493192672729
-0.077713347971439362 -0.011643878184258938 -0.077175498008728027 0.057075046002864838 -0.024857550859451294 -0.066651828587055206 -0.040547892451286316 0.015265065245330334 0.024030040949583054 -0.087193533778190613
-0.027121694758534431 -0.033413834869861603 0.061863761395215988 -0.090349167585372925 0.034081593155860901 -0.083035603165626526 -0.149300962686538696 -0.239620044827461243 -0.073743447661399841 -0.123532019555568695
-0.010263888165354729 -0.064684316515922546 -0.310305714607238770 0.172741055488586426 0.344016373157501221 0.099855646491050720 -0.310243308544158936 -0.166043192148208618 0.185376301407814026 0.101403608918190002
0.075840361416339874 0.047190304845571518 0.006300672888755798 0.013135631568729877 -0.015001583844423294 0.003931771963834763 -0.026944346725940704 0.000390772154787555 -0.081664107739925385 -0.047666128724813461
-0.151951774954795837 -0.364812523126602173 0.053753577172756195 0.029529001563787460 0.012439954094588757 0.009662988595664501 0.022950520738959312 0.050251513719558716 -0.105483368039131165 0.024008385837078094
0.087793312966823578 -0.060385927557945251 -0.082366205751895905 -0.081386625766754150 -0.051623597741127014 0.013242022134363651 0.076220035552978516 -0.094964981079101562 -0.031007807701826096 0.020204940810799599
-0.330308645963668823 0.074608922004699707 0.149560555815696716 0.117135562002658844 0.089737102389335632 -0.027637373656034470 -0.385666072368621826 0.094958238303661346 -0.089968807995319366 0.189541265368461609
-0.236915647983551025 -0.204255402088165283 0.016811711713671684 0.255724757909774780 -0.103952713310718536 0.098288550972938538 0.076962038874626160 -0.240255683660507202 -0.429607629776000977 0.155321538448333740
0.083534263074398041 -0.095767766237258911 -0.094353765249252319 -0.071313433349132538 0.067278034985065460 -0.027706226333975792 -0.036663983017206192 -0.013280083425343037 -0.009836461395025253 0.059012837707996368
0.026863249018788338 -0.058185692876577377 -0.042257614433765411 0.050040673464536667 -0.054109781980514526 -0.026645772159099579 -0.023533763363957405 0.026977483183145523 0.042663052678108215 -0.005906806327402592
-0.021686730906367302 0.173946082592010498 0.000643890933133662 0.061302375048398972 0.362558156251907349 -0.147273316979408264 -0.304144620895385742 -0.119425654411315918 0.133403688669204712 -0.356764197349548340
-0.039623193442821503 -0.082486487925052643 -0.013789254240691662 0.068819388747215271 -0.026264250278472900 -0.115810789167881012 -0.023516204208135605 0.024335736408829689 -0.062774635851383209 0.030754031613469124
0.274187505245208740 -0.159834697842597961 0.184473946690559387 0.035174567252397537 0.048142619431018829 0.114055767655372620 -0.316850662231445312 0.080663427710533142 -0.144768655300140381 -0.177354291081428528
-0.168226122856140137 0.004409933928400278 -0.275579780340194702 0.282050639390945435 -0.225200355052947998 -0.265644937753677368 -0.131417408585548401 -0.225259229540824890 0.231886222958564758 -0.138594105839729309
0.085808932781219482 -0.292738467454910278 0.065138667821884155 0.078690297901630402 -0.038272205740213394 0.153079077601432800 0.025324078276753426 -0.057134792208671570 -0.565272390842437744 -0.135560870170593262
-0.240153580904006958 0.186514019966125488 -0.048574790358543396 0.097508542239665985 -0.198411405086517334 -0.064432218670845032 0.081203192472457886 -0.182053163647651672 -0.005882395431399345 0.078332372009754181
0.335365563631057739 -0.214496582746505737 0.140257447957992554 -0.277697652578353882 -0.157571673393249512 0.095397420227527618 0.453782021999359131 -0.208066254854202271 -0.268551200628280640 -0.275431722402572632
0.114797271788120270 -0.083606660366058350 0.008809763006865978 -0.025315420702099800 -0.051702853292226791 0.024974007159471512 -0.158374488353729248 0.009490261785686016 0.031225070357322693 0.011233879253268242
0.123229391872882843 -0.264024734497070312 0.072546862065792084 0.119588486850261688 -0.253256469964981079 -0.009911497123539448 -0.200655311346054077 0.161171570420265198 -0.063658945262432098 0.134539753198623657
0.066664718091487885 -0.028975831344723701 -0.238476753234863281 0.208436191082000732 -0.122154928743839264 -0.260034829378128052 -0.015006846748292446 -0.005495645105838776 0.002108950866386294 -0.161293417215347290
0.118875972926616669 -0.177338257431983948 0.211421892046928406 -0.247133180499076843 -0.109323993325233459 -0.032797936350107193 0.182553172111511230 0.023038970306515694 -0.443519949913024902 -0.069024644792079926
0.084942854940891266 -0.420005202293395996 -0.193246856331825256 0.190008968114852905 -0.041807536035776138 0.124548755586147308 -0.024053243920207024 -0.242005854845046997 -0.039947655051946640 0.262208968400955200
0.095181047916412354 -0.375821083784103394 0.073318496346473694 0.089595988392829895 0.041328612715005875 0.065533742308616638 -0.014159250073134899 0.056748494505882263 0.054393675178289413 -0.260164380073547363
0.035974320024251938 -0.351900309324264526 0.174712702631950378 -0.324936956167221069 0.317549616098403931 -0.285364151000976562 0.007771542761474848 -0.209149345755577087 0.020335735753178596 -0.210727602243423462
-0.074011690914630890 0.128664001822471619 -0.507250428199768066 -0.187535464763641357 0.219194382429122925 -0.249832227826118469 0.003452877746894956 -0.169731706380844116 0.128276601433753967 0.112866811454296112
-0.274271339178085327 -0.238777115941047668 0.178856134414672852 -0.202741414308547974 -0.155439376831054688 0.286789208650588989 0.036649510264396667 -0.046900711953639984 -0.187327027320861816 0.236343383789062500
0.057534135878086090 0.070500686764717102 0.090248823165893555 0.005937254987657070 -0.287666767835617065 -0.428556740283966064 0.066897518932819366 0.296050757169723511 0.092360116541385651 0.102472312748432159
0.059455618262290955 -0.017051208764314651 0.007272253744304180 0.093747653067111969 -0.090269528329372406 0.038357622921466827 0.016787363216280937 0.021700376644730568 0.092575564980506897 -0.032336529344320297
-0.065595515072345734 0.222881585359573364 -0.337238401174545288 -0.065517060458660126 -0.268548876047134399 -0.305439651012420654 0.507062494754791260 0.067969210445880890 0.372851550579071045 0.112724959850311279
0.113576889038085938 0.168969213962554932 -0.002930229296907783 -0.071808479726314545 -0.367246538400650024 0.105620615184307098 -0.017316905781626701 0.097289234399795532 -0.189809948205947876 0.134643599390983582
-0.267604649066925049 -0.090310640633106232 0.191215455532073975 0.119317866861820221 0.120359078049659729 0.034744665026664734 0.129810228943824768 -0.340958833694458008 0.147941842675209045 -0.007960300892591476
-0.000640608486719429 0.067992463707923889 0.093915574252605438 0.076540954411029816 -0.065711304545402527 -0.048707284033298492 0.004541309550404549 0.017711259424686432 -0.004321498330682516 0.035589925944805145
-0.285497128963470459 -0.108881063759326935 -0.151332437992095947 0.307371377944946289 -0.016271628439426422 -0.135594084858894348 -0.090184994041919708 -0.095237515866756439 -0.253655910491943359 0.135830253362655640
-0.226364448666572571 0.194890797138214111 0.354799717664718628 -0.264004588127136230 0.049397762864828110 -0.032498646527528763 -0.004039761144667864 0.055989999324083328 -0.313461482524871826 -0.365638405084609985
-0.384205877780914307 -0.278006881475448608 0.068710915744304657 0.080697275698184967 0.139137461781501770 0.047402940690517426 0.089203953742980957 -0.276561647653579712 -0.096736736595630646 -0.072364270687103271
-0.164457142353057861 0.196681350469589233 0.089074932038784027 -0.058934919536113739 -0.469736903905868530 -0.238574370741844177 0.268868088722229004 0.002182021271437407 0.237661898136138916 -0.141937732696533203
-0.087883681058883667 -0.177653416991233826 -0.188662827014923096 -0.059819985181093216 -0.064293920993804932 0.059843312948942184 0.202520608901977539 0.067060306668281555 -0.169254288077354431 0.265473276376724243
0.078681111335754395 0.107443347573280334 0.002981446683406830 0.232201397418975830 -0.094157449901103973 -0.118593662977218628 -0.040750566869974136 -0.253618210554122925 -0.111306138336658478 -0.098377227783203125
-0.052987627685070038 -0.040138181298971176 -0.047125253826379776 0.005369215272367001 -0.050436124205589294 0.003393927123397589 0.043148003518581390 0.036286793649196625 -0.066901005804538727 -0.010366436094045639
0.104965791106224060 -0.188876479864120483 0.066861912608146667 0.010679724626243114 -0.197873637080192566 0.071994312107563019 -0.103321038186550140 0.187167122960090637 0.199631467461585999 -0.332426756620407104
-0.099355652928352356 0.083881922066211700 0.070651292800903320 -0.318835198879241943 -0.363241702318191528 0.024817086756229401 0.519582152366638184 0.028957379981875420 -0.125257521867752075 -0.064728811383247375
0.048652254045009613 0.158620387315750122 -0.308397173881530762 0.024555351585149765 0.035045206546783447 -0.094750039279460907 0.018397562205791473 0.267127960920333862 0.141638860106468201 0.111321777105331421
0.040389638394117355 -0.030121441930532455 -0.017295094206929207 -0.090262547135353088 0.080853238701820374 -0.039698041975498199 0.004302820190787315 0.035929106175899506 -0.039550848305225372 -0.033817958086729050
-0.242141559720039368 0.094416178762912750 0.385634750127792358 -0.137279108166694641 -0.117998614907264709 0.039502017199993134 -0.174047291278839111 -0.052535623311996460 -0.254432320594787598 0.107811607420444489
0.145238742232322693 0.070357300341129303 0.142172753810882568 0.073083385825157166 -0.093651756644248962 -0.310255169868469238 -0.168683603405952454 -0.010768413543701172 0.107311084866523743 -0.058661356568336487
0.025113467127084732 0.256959795951843262 -0.233539700508117676 -0.365398228168487549 -0.119144864380359650 -0.144394874572753906 -0.272822111845016479 0.337290883064270020 -0.003037340473383665 -0.082590289413928986
0.156678527593612671 -0.026737125590443611 -0.012314341031014919 -0.110014580190181732 -0.343515902757644653 -0.041671838611364365 0.180176287889480591 -0.135270968079566956 -0.080700404942035675 0.087975397706031799
-0.209811732172966003 -0.210551500320434570 0.044853664934635162 0.124223679304122925 0.089387014508247375 0.108258746564388275 0.053743626922369003 0.102538406848907471 -0.228047206997871399 0.041120510548353195
-0.148002669215202332 -0.235069915652275085 0.254762917757034302 -0.310427844524383545 0.199281901121139526 -0.038652479648590088 -0.201637163758277893 0.227534830570220947 -0.293890714645385742 -0.297233432531356812
0.163308203220367432 0.013238788582384586 -0.320990264415740967 0.183931171894073486 -0.166875794529914856 -0.276703447103500366 -0.078409872949123383 -0.350176632404327393 0.112551584839820862 0.195688560605049133
0.058056861162185669 0.096316397190093994 0.115633934736251831 -0.209498301148414612 -0.223915785551071167 0.358332812786102295 0.147471904754638672 -0.062789708375930786 -0.240315154194831848 0.032217212021350861
0.072311028838157654 0.203468367457389832 -0.016585748642683029 -0.265968143939971924 0.040842566639184952 -0.228650972247123718 0.240549534559249878 -0.466915160417556763 0.100452303886413574 0.016947671771049500
-0.329681634902954102 -0.183795213699340820 0.074083477258682251 0.054952301084995270 0.021814741194248199 0.162256896495819092 0.067008137702941895 0.042784664779901505 -0.319266706705093384 0.184439137578010559
0.078042380511760712 0.045338828116655350 -0.136872574687004089 0.065904520452022552 0.116376362740993500 0.112866893410682678 -0.167101725935935974 0.084285303950309753 -0.178374350070953369 0.068607553839683533
-0.060987614095211029 0.121557883918285370 0.152462512254714966 0.137819930911064148 0.219118997454643250 -0.348970472812652588 0.104146495461463928 -0.119190305471420288 -0.065110489726066589 -0.433465182781219482
0.014843228273093700 0.065397240221500397 0.007015795912593603 0.025645539164543152 -0.010056504048407078 0.086721636354923248 -0.404848456382751465 0.087062388658523560 -0.190375789999961853 0.012880487367510796
0.051263839006423950 0.040976576507091522 0.060746248811483383 0.030095262452960014 -0.081308089196681976 0.077326394617557526 -0.070347428321838379 0.011001705192029476 -0.015025257132947445 -0.064132452011108398
0.060412477701902390 -0.006356281228363514 -0.055456779897212982 -0.114147387444972992 0.048929762095212936 0.057360347360372543 -0.061436813324689865 0.004014163278043270 -0.043841265141963959 -0.031934294849634171
-0.022472176700830460 0.046261105686426163 0.028909469023346901 0.040879942476749420 -0.073983177542686462 0.019662883132696152 -0.035278297960758209 0.010386305861175060 0.060384988784790039 -0.060318358242511749
-0.079852007329463959 0.139173343777656555 -0.190643519163131714 0.073349997401237488 0.000071160786319524 -0.027809942141175270 -0.141991004347801208 0.176995396614074707 -0.318601429462432861 0.144259944558143616
0.100379660725593567 -0.230478361248970032 0.125698819756507874 -0.319579064846038818 0.155979409813880920 0.217711821198463440 -0.428297072649002075 0.170260503888130188 -0.035578213632106781 -0.129952922463417053
-0.315999209880828857 -0.269891709089279175 -0.264030337333679199 0.112910211086273193 0.184972628951072693 -0.017313377931714058 0.174795225262641907 -0.070622839033603668 0.393934667110443115 -0.270825803279876709
0.127944603562355042 -0.293093800544738770 0.158920764923095703 0.001464689150452614 0.132642209529876709 -0.099146045744419098 -0.309267222881317139 0.290415257215499878 -0.112559787929058075 -0.361279726028442383
0.115012332797050476 0.018403958529233932 -0.366967886686325073 -0.066003769636154175 -0.084858365356922150 -0.130993887782096863 -0.340004533529281616 0.086898304522037506 0.228506937623023987 0.177598819136619568
0.041491523385047913 -0.383959114551544189 0.142864704132080078 0.014512039721012115 0.111231647431850433 -0.119458645582199097 -0.229467764496803284 0.094884574413299561 0.102753460407257080 0.072611175477504730
0.000223172115511261 -0.025353686884045601 0.120689228177070618 0.028556047007441521 0.046442046761512756 -0.073255702853202820 0.108358360826969147 -0.063881948590278625 -0.024257080629467964 -0.171725422143936157
0.008107404224574566 -0.108338430523872375 -0.147186189889907837 -0.454831719398498535 -0.264298230409622192 0.153646394610404968 -0.208620920777320862 0.325501263141632080 0.333921909332275391 0.106756381690502167
-0.290521144866943359 -0.139647752046585083 0.089048139750957489 -0.329226523637771606 0.200122207403182983 -0.032595682889223099 -0.165888220071792603 0.186613351106643677 -0.584709286689758301 -0.062438555061817169
0.112490750849246979 0.297965854406356812 0.017077323049306870 -0.021260708570480347 -0.050633743405342102 -0.267059206962585449 0.211035951972007751 -0.407411634922027588 -0.079549066722393036 -0.256760299205780029
0.053037252277135849 0.094891354441642761 -0.076699599623680115 -0.025778461247682571 0.080995291471481323 -0.030242839828133583 0.083781808614730835 0.088595978915691376 0.031556271016597748 0.029745073989033699
-0.003914221189916134 -0.204168468713760376 -0.111917190253734589 0.064674757421016693 -0.250306546688079834 0.322223991155624390 -0.232813775539398193 0.065595008432865143 0.148708105087280273 0.163671404123306274
-0.491696476936340332 0.155852034687995911 0.051662132143974304 0.038290672004222870 0.093048088252544403 0.036408100277185440 0.108939960598945618 -0.228194922208786011 0.050536423921585083 0.142724469304084778
0.043526906520128250 0.103077873587608337 0.078609026968479156 0.093314178287982941 -0.310108244419097900 -0.379853099584579468 -0.086080536246299744 -0.378077000379562378 0.071595169603824615 0.105738617479801178
-0.315265059471130371 -0.258359611034393311 0.069470301270484924 0.047286309301853180 0.095107376575469971 -0.082255773246288300 -0.096344031393527985 0.197957932949066162 -0.253080189228057861 0.239480242133140564
-0.065434917807579041 -0.288362324237823486 0.188067480921745300 0.118767268955707550 0.116921536624431610 0.147559225559234619 -0.061943184584379196 -0.161422982811927795 -0.474936842918395996 0.030602149665355682
0.049222327768802643 -0.010114706121385098 0.165128827095031738 -0.295859336853027344 0.146923989057540894 -0.127305939793586731 -0.164721563458442688 -0.278799921274185181 0.029711116105318069 0.085799135267734528
-0.009906210936605930 -0.207072332501411438 0.021205179393291473 0.156235739588737488 -0.068428173661231995 0.155284374952316284 -0.312361985445022583 0.029259311035275459 -0.342739343643188477 0.047441229224205017
0.135365396738052368 -0.088866844773292542 -0.197619810700416565 0.144539400935173035 0.199756130576133728 0.003314589383080602 0.131391674280166626 -0.369695454835891724 -0.184863805770874023 0.195360898971557617
-0.010151977650821209 -0.036040823906660080 0.057003527879714966 -0.051632601767778397 -0.094801656901836395 -0.000541314540896565 0.066975459456443787 0.030025970190763474 -0.067767255008220673 -0.038236502557992935
-0.153438240289688110 -0.296148210763931274 -0.185840398073196411 0.157768487930297852 0.142543867230415344 0.077287442982196808 -0.376539111137390137 0.047037418931722641 0.051657568663358688 0.036351006478071213
-0.008659237064421177 0.107059270143508911 -0.069821611046791077 0.022283928468823433 -0.047905266284942627 0.040335308760404587 -0.059341035783290863 -0.050073187798261642 0.084363996982574463 -0.047363344579935074
-0.014215115457773209 0.098816640675067902 -0.289111822843551636 0.265682697296142578 0.170597344636917114 0.054113544523715973 0.149176299571990967 -0.339796453714370728 -0.460175365209579468 -0.024653363972902298
0.151464015245437622 0.126114308834075928 0.144442215561866760 -0.270312398672103882 -0.176423206925392151 -0.419042676687240601 -0.054192338138818741 0.156561672687530518 0.066287450492382050 0.087753869593143463
-0.028626937419176102 0.116641633212566376 -0.217390790581703186 0.033550322055816650 0.118665419518947601 0.057762991636991501 0.080121241509914398 0.082433372735977173 -0.094140060245990753 -0.310629636049270630
0.066078864037990570 -0.130024358630180359 -0.087521322071552277 0.032206233590841293 0.139002338051795959 0.136502459645271301 -0.435095846652984619 0.138514921069145203 0.129069685935974121 0.159428536891937256
0.094248004257678986 -0.145032063126564026 0.094459317624568939 -0.006309248507022858 -0.263978153467178345 0.396373718976974487 0.210586905479431152 -0.179581552743911743 -0.133277013897895813 -0.398326665163040161
0.137722611427307129 0.001725846785120666 -0.355877250432968140 0.324051827192306519 -0.213287010788917542 -0.017350601032376289 -0.297096252441406250 0.269376218318939209 -0.025759257376194000 -0.096301279962062836
-0.329829007387161255 -0.174693599343299866 -0.036051601171493530 0.135897904634475708 0.096526764333248138 0.105533368885517120 0.079031080007553101 0.072556607425212860 -0.449477702379226685 -0.013932283967733383
0.055591717362403870 0.041347227990627289 -0.064515843987464905 -0.058059155941009521 -0.036330435425043106 -0.027616037055850029 -0.066403508186340332 -0.070730701088905334 -0.077206663787364960 -0.043177217245101929
0.071383975446224213 0.036876883357763290 -0.184195414185523987 -0.202598020434379578 -0.248444527387619019 0.178773269057273865 -0.442575514316558838 0.315971851348876953 0.147697180509567261 -0.020309967920184135
0.018999088555574417 -0.027905706316232681 0.051390144973993301 0.081466808915138245 0.105986177921295166 0.056706316769123077 0.076726987957954407 0.036467488855123520 0.018471490591764450 -0.083756126463413239
-0.007619819138199091 0.149652481079101562 -0.031596925109624863 0.074672333896160126 -0.100934430956840515 0.098700329661369324 -0.440792322158813477 0.151081189513206482 -0.259703993797302246 0.069737598299980164
0.285427272319793701 0.102251194417476654 0.075811997056007385 -0.130310893058776855 -0.262602835893630981 -0.199081316590309143 0.073720395565032959 -0.151143163442611694 -0.380325734615325928 -0.213156297802925110
-0.052848711609840393 -0.000413793139159679 -0.088759288191795349 -0.017007598653435707 0.071120075881481171 0.006080916617065668 0.062940090894699097 -0.095371820032596588 0.077549844980239868 -0.068165563046932220
-0.081623367965221405 0.240385800600051880 -0.002378209494054317 -0.037721611559391022 0.217945799231529236 -0.284685969352722168 -0.224852651357650757 0.224255084991455078 0.082896038889884949 -0.011986060999333858
0.058841209858655930 0.093847490847110748 -0.052520424127578735 0.174822047352790833 -0.065161310136318207 -0.525485932826995850 0.126412019133567810 -0.172837004065513611 0.129797384142875671 0.113151058554649353
-0.112966604530811310 0.377108216285705566 -0.100441120564937592 -0.251274645328521729 -0.220869973301887512 -0.150362968444824219 0.166633382439613342 0.154763683676719666 -0.002250184537842870 -0.254816174507141113
-0.050190508365631104 0.063142821192741394 -0.001252111862413585 -0.048336621373891830 0.024928571656346321 -0.091566130518913269 -0.026488596573472023 0.003903532400727272 0.021355152130126953 -0.099576041102409363
-0.068291649222373962 -0.079738482832908630 -0.034807864576578140 -0.059957664459943771 -0.071374058723449707 0.033649284392595291 0.007161393295973539 0.101482637226581573 -0.031744584441184998 -0.096159569919109344
0.179688513278961182 -0.273242563009262085 -0.373555243015289307 -0.187116608023643494 -0.006968444678932428 0.234225317835807800 0.159585893154144287 -0.225120261311531067 0.072650037705898285 0.276379555463790894
0.043048247694969177 0.108123779296875000 0.068678274750709534 0.050913572311401367 -0.483718931674957275 0.111168369650840759 0.078817181289196014 0.163178309798240662 -0.193415388464927673 0.148404106497764587
0.039080016314983368 -0.194324404001235962 0.373593121767044067 -0.188218429684638977 -0.148189082741737366 -0.142498373985290527 -0.104156427085399628 0.247614204883575439 -0.077472060918807983 0.063079267740249634
-0.075610481202602386 -0.016246024519205093 0.059907961636781693 -0.032737094908952713 0.029395626857876778 0.018803708255290985 -0.064952395856380463 0.070695638656616211 0.008906628005206585 -0.012242853641510010
-0.135049939155578613 -0.021235672757029533 -0.102024376392364502 -0.233415901660919189 0.287121444940567017 0.284455746412277222 -0.230275765061378479 0.126501977443695068 0.030427655205130577 -0.224025115370750427
-0.160858899354934692 0.356377005577087402 0.224224016070365906 0.156157344579696655 -0.331685543060302734 -0.153890118002891541 0.246971130371093750 -0.219289600849151611 -0.277502626180648804 -0.203613862395286560
0.088692225515842438 -0.305463910102844238 0.006333677563816309 0.009732009842991829 0.088530965149402618 -0.013749818317592144 -0.191382527351379395 0.144052907824516296 0.092388957738876343 -0.318142950534820557
-0.208312317728996277 0.003293021814897656 -0.090528830885887146 0.070059999823570251 0.030373616144061089 0.060848012566566467 0.014500878751277924 0.155711904168128967 -0.343057632446289062 0.117561310529708862
-0.030168775469064713 0.126063525676727295 -0.191548734903335571 0.195660233497619629 -0.216289997100830078 -0.098347604274749756 0.128997057676315308 -0.117407910525798798 -0.200930133461952209 0.082105785608291626
0.193243801593780518 0.094305627048015594 -0.204192385077476501 0.124116450548171997 0.220758765935897827 0.156059578061103821 -0.037981342524290085 -0.136661306023597717 0.115442618727684021 -0.230903834104537964
0.039571933448314667 -0.087262585759162903 -0.126656427979469299 -0.033671729266643524 0.024282030761241913 -0.118655942380428314 -0.070732109248638153 -0.081726893782615662 -0.166891559958457947 0.027074411511421204
0.137926131486892700 -0.276458799839019775 0.123310729861259460 -0.147334575653076172 0.004030925221741199 -0.005603235680609941 -0.087352417409420013 -0.305445045232772827 0.023629184812307358 0.078612752258777618
0.149791345000267029 0.017621587961912155 -0.175690725445747375 0.093150384724140167 0.075816407799720764 -0.266763985157012939 -0.418039172887802124 0.278833597898483276 0.050030965358018875 0.028715185821056366
-0.011994382366538048 -0.112760260701179504 -0.007093057502061129 -0.151000872254371643 -0.197726979851722717 -0.077099181711673737 -0.044143967330455780 -0.110365249216556549 -0.072093233466148376 0.061217628419399261
-0.074014529585838318 0.039242379367351532 -0.002908248919993639 0.067712649703025818 -0.075211547315120697 0.049779769033193588 -0.077492855489253998 -0.096530832350254059 0.081555873155593872 -0.062167342752218246
0.135449782013893127 -0.347229719161987305 0.026892274618148804 0.095429010689258575 0.055193025618791580 0.105308398604393005 0.018684208393096924 -0.169694453477859497 -0.242317765951156616 -0.267375737428665161
-0.031544260680675507 -0.079606801271438599 0.022484689950942993 0.030167331919074059 -0.028386054560542107 -0.005088321864604950 -0.082555934786796570 0.088173970580101013 0.035045955330133438 0.070009298622608185
0.112747341394424438 0.066229127347469330 -0.133003920316696167 0.150491058826446533 -0.152099177241325378 0.110678762197494507 -0.321428239345550537 -0.039316117763519287 0.099454872310161591 -0.101676471531391144
0.159523054957389832 0.025475725531578064 0.096415519714355469 0.161262989044189453 0.051264528185129166 -0.148523390293121338 -0.265017181634902954 -0.342313319444656372 0.157571077346801758 -0.006674185860902071
0.072693169116973877 0.079187750816345215 0.102994903922080994 -0.085110552608966827 0.163237288594245911 0.002028225921094418 -0.238995254039764404 -0.454262673854827881 0.085830464959144592 0.056741625070571899
-0.034213069826364517 0.013585592620074749 0.004695399664342403 0.072714850306510925 -0.079070664942264557 0.076842352747917175 -0.058723039925098419 0.040868323296308517 0.000123411053209566 0.071733191609382629
0.163682699203491211 0.135917559266090393 -0.195649623870849609 0.204056501388549805 -0.342420190572738647 0.031771022826433182 0.181099623441696167 0.018530933186411858 -0.151355117559432983 -0.287571847438812256
0.254160195589065552 0.334265887737274170 -0.422505438327789307 -0.290006905794143677 0.023667367175221443 0.184752255678176880 -0.178717762231826782 -0.120829194784164429 -0.257418930530548096 -0.038025088608264923
-0.243325293064117432 -0.077830038964748383 -0.165542647242546082 0.130671620368957520 0.475046604871749878 -0.085389800369739532 -0.201275989413261414 -0.221007481217384338 -0.298346191644668579 -0.514657795429229736
0.107818290591239929 -0.481857925653457642 0.151222184300422668 -0.111340425908565521 -0.222079217433929443 0.010877885855734348 0.102169439196586609 0.146540448069572449 0.158968448638916016 -0.242139875888824463
0.110346242785453796 0.200981080532073975 -0.332222968339920044 -0.269035458564758301 -0.083566114306449890 0.108631536364555359 -0.373181790113449097 -0.188852787017822266 0.174742981791496277 0.037962310016155243
-0.358941018581390381 0.020024333149194717 0.033993393182754517 0.056146532297134399 0.058512080460786819 -0.100252032279968262 0.086317919194698334 0.188055366277694702 -0.411037296056747437 -0.326568961143493652
0.064719542860984802 -0.196413353085517883 0.047784421592950821 0.126641899347305298 0.026100436225533485 0.105727039277553558 -0.208033502101898193 0.082601465284824371 -0.062532357871532440 0.056808780878782272
0.043011911213397980 0.135507091879844666 -0.202276080846786499 -0.108850248157978058 0.401314795017242432 -0.029384527355432510 -0.246259421110153198 -0.350617855787277222 -0.121222190558910370 0.059000249952077866
0.137812972068786621 -0.088635332882404327 0.111528046429157257 -0.004025179892778397 0.076898254454135895 0.297608971595764160 -0.240735277533531189 -0.237068668007850647 -0.402607202529907227 0.151594161987304688
0.027035051956772804 0.026876855641603470 -0.010716718621551991 -0.087153621017932892 -0.058770302683115005 -0.052966561168432236 -0.068610973656177521 -0.015079501084983349 -0.064421899616718292 -0.071601234376430511
-0.089651577174663544 0.004884474445134401 -0.065902352333068848 0.020748464390635490 -0.099328309297561646 0.012833232060074806 -0.038748536258935928 -0.010627832263708115 0.056830294430255890 -0.059562712907791138
0.046339306980371475 -0.249660864472389221 -0.386311620473861694 -0.112538181245326996 0.143540188670158386 0.113058999180793762 0.148248374462127686 0.072305478155612946 -0.430365741252899170 0.160920426249504089
-0.346187859773635864 0.172132924199104309 -0.224413439631462097 0.196021988987922668 -0.112097330391407013 0.066834285855293274 0.044366814196109772 -0.299735039472579956 0.147709116339683533 0.125696122646331787
0.093916840851306915 0.058193728327751160 0.116758882999420166 0.074077904224395752 0.152614772319793701 -0.374694317579269409 -0.272765576839447021 -0.273597121238708496 0.035981539636850357 0.088960722088813782
0.127674460411071777 -0.038342531770467758 -0.192886516451835632 -0.013628729619085789 -0.296681880950927734 -0.035396914929151535 0.304651975631713867 -0.308711767196655273 0.228678733110427856 -0.005118261557072401
0.030135361477732658 -0.026184499263763428 -0.010466067120432854 -0.220598027110099792 0.526573956012725830 0.127262502908706665 -0.229322507977485657 -0.153914228081703186 -0.273597955703735352 -0.188517615199089050
-0.161304503679275513 -0.212468504905700684 0.236184716224670410 -0.117550909519195557 0.248705908656120300 -0.165546521544456482 -0.456814229488372803 0.201543509960174561 -0.011383489705622196 -0.428631395101547241
-0.439645290374755859 0.119199618697166443 -0.035647738724946976 0.110476821660995483 -0.381694257259368896 0.105152271687984467 -0.088354788720607758 0.043265849351882935 0.083676159381866455 0.164761975407600403
-0.408741980791091919 -0.275720655918121338 0.056415051221847534 0.063434243202209473 0.112592183053493500 0.099173776805400848 0.092057324945926666 0.005752611439675093 -0.152827292680740356 0.076754234731197357
-0.331300288438796997 -0.013397896662354469 -0.088602423667907715 0.037358533591032028 0.099452048540115356 0.148554831743240356 0.136196509003639221 -0.362243562936782837 0.134437590837478638 0.022820735350251198
-0.045054364949464798 -0.022719830274581909 -0.099002353847026825 -0.072740346193313599 0.014896725304424763 -0.007310067303478718 0.064338594675064087 0.102891772985458374 -0.011760744266211987 0.016610514372587204
-0.062688559293746948 -0.439627617597579956 0.232789903879165649 -0.310107439756393433 0.362628072500228882 -0.017368776723742485 -0.195185869932174683 -0.322619497776031494 -0.257330477237701416 -0.076791413128376007
0.203601405024528503 -0.080204151570796967 -0.484110087156295776 0.033926308155059814 -0.331360697746276855 -0.142033219337463379 0.052401468157768250 -0.073498077690601349 0.185996606945991516 0.062694266438484192
0.055539164692163467 0.065759994089603424 0.141534596681594849 0.056979048997163773 0.110799394547939301 -0.058364570140838623 0.307629436254501343 -0.538745701313018799 -0.325724393129348755 -0.094008006155490875
0.128596320748329163 0.094346269965171814 0.179173767566680908 0.086092203855514526 -0.041813462972640991 -0.316421121358871460 -0.245799303054809570 -0.047388188540935516 -0.199062839150428772 -0.205304518342018127
-0.039064254611730576 -0.022391917183995247 0.012064870446920395 -0.049214623868465424 -0.038632318377494812 -0.030996412038803101 0.096265405416488647 -0.048061858862638474 -0.039245214313268661 -0.040004812180995941
-0.274472624063491821 0.119034998118877411 -0.237806648015975952 0.229684561491012573 0.346374183893203735 -0.267150491476058960 -0.019831832498311996 -0.078773364424705505 -0.001958400709554553 -0.074431069195270538
0.003987065982073545 0.185619458556175232 -0.220684140920639038 -0.247072696685791016 0.002321950625628233 0.239153251051902771 -0.095432110130786896 0.130208060145378113 -0.264803051948547363 -0.294117599725723267
-0.066908627748489380 0.030996277928352356 -0.227100327610969543 -0.021300818771123886 -0.503197669982910156 0.152566537261009216 0.162822887301445007 0.116606891155242920 0.015908695757389069 0.061901185661554337
0.080288030207157135 0.068715468049049377 -0.020792622119188309 -0.067103996872901917 0.022576486691832542 0.038463462144136429 -0.078421674668788910 0.000984472455456853 0.083862870931625366 -0.060987200587987900
-0.080337554216384888 -0.042935375124216080 -0.014365701936185360 -0.116238072514533997 0.095772743225097656 0.081896759569644928 -0.016401896253228188 -0.020169356837868690 0.025166664272546768 0.028254991397261620
0.215518504381179810 -0.225905761122703552 0.009676550514996052 0.050802893936634064 -0.202919512987136841 0.018944857642054558 -0.014671565964818001 -0.439321100711822510 0.056602481752634048 0.075599893927574158
0.096266552805900574 0.085105374455451965 0.106369696557521820 -0.218969821929931641 -0.011496876366436481 -0.063395857810974121 -0.400096476078033447 0.146859735250473022 0.048308789730072021 0.041173845529556274
0.100107930600643158 -0.035765796899795532 -0.054470080882310867 -0.072664506733417511 0.039925526827573776 -0.009409419260919094 -0.081818357110023499 -0.015303814783692360 0.125344544649124146 0.059488516300916672
-0.079469189047813416 0.120222620666027069 -0.251279026269912720 -0.281472325325012207 -0.000718611641786993 -0.280746996402740479 0.091696903109550476 -0.241395041346549988 0.040414109826087952 0.124632619321346283
-0.014025761745870113 0.031392987817525864 -0.161403998732566833 0.176187172532081604 -0.260048091411590576 0.129133746027946472 -0.361589014530181885 -0.191703662276268005 -0.001049761311151087 -0.059863239526748657
0.209524527192115784 0.040287051349878311 -0.386988580226898193 -0.006731318309903145 0.001982748042792082 -0.361695855855941772 -0.168850809335708618 -0.173501744866371155 0.176561295986175537 -0.035637497901916504
0.003333098022267222 0.128239214420318604 -0.254747569561004639 -0.170694902539253235 0.079448752105236053 0.337160646915435791 -0.106812149286270142 -0.133069291710853577 -0.247315913438796997 -0.109375953674316406
0.000658415607176721 -0.087292939424514771 -0.083238661289215088 -0.002009243471547961 0.033743031322956085 -0.058386009186506271 0.005739770364016294 0.004517179448157549 0.092033825814723969 -0.070560894906520844
-0.024772642180323601 0.021861627697944641 0.126527845859527588 0.070272132754325867 -0.417621999979019165 0.140439689159393311 -0.242010653018951416 0.123109310865402222 -0.177328616380691528 0.165735125541687012
0.279026508331298828 -0.116693593561649323 -0.169405505061149597 0.173141628503799438 -0.189716055989265442 -0.078272283077239990 0.102164864540100098 0.242772251367568970 -0.224463686347007751 0.114780269563198090
0.298437476158142090 -0.215103700757026672 0.032177135348320007 -0.004944293294101954 0.184515655040740967 -0.352110296487808228 -0.177598521113395691 -0.047994729131460190 -0.321569412946701050 0.080339051783084869
0.116952471435070038 -0.279048681259155273 0.070764213800430298 0.041386794298887253 0.139495566487312317 -0.203234151005744934 0.046754982322454453 -0.589510977268218994 0.051386326551437378 0.231402173638343811
0.259244918823242188 -0.255353868007659912 -0.193555563688278198 0.199008926749229431 0.058014627546072006 -0.074041172862052917 0.110452331602573395 -0.076555073261260986 -0.056044623255729675 -0.295851379632949829
0.154986545443534851 0.076714843511581421 0.212212443351745605 0.047477066516876221 -0.152952522039413452 -0.246616020798683167 -0.092950075864791870 0.001969240838661790 0.197175294160842896 -0.234966814517974854
0.140867635607719421 -0.070618078112602234 0.115758456289768219 0.006858485285192728 0.086765922605991364 0.067632600665092468 0.119963906705379486 -0.066977210342884064 -0.330311447381973267 -0.528487265110015869
-0.135753542184829712 0.115107089281082153 -0.166285201907157898 0.224523127079010010 0.138572245836257935 0.047646332532167435 -0.193410307168960571 -0.159428641200065613 -0.230111092329025269 -0.152573108673095703
0.241856202483177185 0.089743785560131073 -0.328117281198501587 0.173326358199119568 0.082599155604839325 0.147486627101898193 -0.063890479505062103 -0.100059732794761658 -0.415016770362854004 0.158415004611015320
0.000615031633060426 0.062810994684696198 0.025664810091257095 -0.054701741784811020 -0.082280389964580536 0.078964762389659882 0.051716517657041550 -0.087465882301330566 -0.073865696787834167 -0.045025650411844254
-0.037207972258329391 -0.017949918285012245 -0.056994207203388214 0.287123978137969971 -0.229716047644615173 -0.037343796342611313 0.180333092808723450 -0.265590995550155640 0.044439632445573807 0.064241617918014526
0.084076181054115295 0.120135232806205750 0.050446067005395889 0.054324354976415634 0.048514898866415024 0.044753454625606537 0.026518514379858971 0.041971441358327866 -0.378426402807235718 -0.179320767521858215
0.103706598281860352 0.062752336263656616 0.146369606256484985 0.230119869112968445 0.043220952153205872 0.008254743181169033 -0.234117001295089722 -0.168900236487388611 0.041867725551128387 -0.120214961469173431
0.095569856464862823 -0.368471682071685791 0.032112859189510345 0.133050665259361267 -0.175785973668098450 0.067087076604366302 0.108051098883152008 -0.234215706586837769 0.218809336423873901 -0.261272221803665161
-0.136472538113594055 0.109173260629177094 -0.207446262240409851 -0.204626053571701050 -0.091437451541423798 -0.206725433468818665 0.116588361561298370 0.621398985385894775 0.038678739219903946 0.031383004039525986
-0.182524502277374268 -0.089155010879039764 0.084737226366996765 0.154137924313545227 -0.340368568897247314 0.132246896624565125 0.048073846846818924 0.106457181274890900 0.127700492739677429 -0.328698456287384033
0.237470895051956177 -0.136772096157073975 -0.410470575094223022 0.494711697101593018 -0.218271791934967041 0.172073677182197571 0.099622018635272980 -0.155797868967056274 0.081088587641716003 0.026176184415817261
0.065518826246261597 -0.046317394822835922 -0.200951457023620605 0.305303663015365601 -0.029914395883679390 -0.260192394256591797 -0.045586120337247849 -0.016394833102822304 0.005046158563345671 0.072742238640785217
0.089367583394050598 -0.238364383578300476 0.242886319756507874 -0.027165830135345459 -0.129241749644279480 0.056776531040668488 -0.327079296112060547 -0.308754444122314453 0.193157851696014404 -0.179325833916664124
-0.212030604481697083 -0.055744685232639313 -0.030235640704631805 -0.247205585241317749 0.060114391148090363 0.214222490787506104 -0.185970753431320190 0.134838461875915527 0.379680931568145752 0.060309600085020065
0.017354696989059448 0.127289965748786926 0.220562785863876343 -0.292265743017196655 0.276976466178894043 -0.189986258745193481 -0.347646206617355347 -0.304978519678115845 0.034977942705154419 0.119224250316619873
0.006647389847785234 -0.040612023323774338 -0.041389383375644684 -0.192465722560882568 0.077142320573329926 -0.056734140962362289 -0.143828392028808594 -0.017153641209006310 -0.004176081623882055 -0.064918622374534607
-0.158229976892471313 0.097140550613403320 -0.241337582468986511 0.159394815564155579 -0.097653247416019440 0.219902396202087402 0.151012137532234192 -0.348733097314834595 0.046913947910070419 0.020265026018023491
-0.177358329296112061 -0.045278474688529968 0.154528573155403137 -0.041051194071769714 0.150061428546905518 -0.297561794519424438 0.155674129724502563 0.037868000566959381 0.458403974771499634 -0.015365031547844410
-0.074501514434814453 0.038933165371417999 -0.020057953894138336 -0.052468810230493546 -0.018112158402800560 0.024508183822035789 0.012684304267168045 0.028254715725779533 0.034227140247821808 0.037938956171274185
0.095093116164207458 -0.058407768607139587 -0.213330581784248352 0.256028026342391968 0.007432927843183279 -0.148048132658004761 -0.248517438769340515 0.089356251060962677 0.092238664627075195 0.090626463294029236
-0.414881378412246704 -0.069771498441696167 -0.051856346428394318 -0.053734302520751953 -0.161764279007911682 0.166611179709434509 -0.005056007765233517 0.186029016971588135 -0.374703824520111084 -0.123466327786445618
-0.024528540670871735 -0.002753532724454999 -0.060404956340789795 -0.068258680403232574 -0.069510437548160553 0.042747426778078079 -0.019910063594579697 -0.005973586812615395 -0.057434622198343277 -0.097463473677635193
-0.147492662072181702 -0.229691475629806519 -0.226249963045120239 0.164847910404205322 -0.129455745220184326 0.206132039427757263 0.109636843204498291 0.111228846013545990 -0.254352688789367676 0.073302835226058960
0.059493333101272583 -0.070280693471431732 0.071327582001686096 -0.024139562621712685 -0.098715826869010925 -0.075473308563232422 -0.074176229536533356 -0.010852525942027569 -0.092907302081584930 -0.019220823422074318
0.271671861410140991 0.051072228699922562 0.023166917264461517 -0.141972377896308899 -0.132562756538391113 -0.153178036212921143 0.131556063890457153 0.328813493251800537 -0.451035320758819580 -0.184290096163749695
-0.106087028980255127 0.271182924509048462 0.049494665116071701 0.155574932694435120 0.151437133550643921 0.129076704382896423 0.141105517745018005 -0.198042884469032288 -0.292020618915557861 -0.330246150493621826
-0.096703104674816132 -0.280018121004104614 0.003784694476053119 -0.003068723017349839 0.227856948971748352 0.111113823950290680 -0.290084868669509888 -0.179749384522438049 0.159316718578338623 0.126126796007156372
-0.399388402700424194 -0.341642081737518311 -0.035814221948385239 0.000217801163671538 0.073739297688007355 0.056227937340736389 -0.065897360444068909 0.125245839357376099 0.241972833871841431 -0.134461790323257446
0.004879041574895382 0.074145987629890442 0.060485236346721649 -0.051754824817180634 -0.017261272296309471 -0.005140359513461590 -0.010934264399111271 0.032933663576841354 -0.067770153284072876 0.005048031453043222
0.140591233968734741 0.584109365940093994 0.188582167029380798 -0.032384313642978668 -0.336274117231369019 -0.006818225607275963 -0.173390880227088928 -0.220074713230133057 -0.325854212045669556 -0.074896477162837982
0.090559557080268860 0.038528874516487122 -0.079459108412265778 -0.011868028901517391 -0.075268499553203583 -0.097434826195240021 0.050088740885257721 -0.057013183832168579 0.058681055903434753 0.025859942659735680
-0.129202932119369507 0.083094067871570587 -0.157493010163307190 0.166858479380607605 -0.238211929798126221 -0.239779919385910034 -0.161143973469734192 0.249997347593307495 -0.053394999355077744 0.145973891019821167
-0.021864673122763634 0.126469507813453674 -0.340309619903564453 0.035464603453874588 0.123635955154895782 0.114576995372772217 -0.143724784255027771 -0.555274784564971924 0.175069555640220642 0.118943825364112854
-0.440231233835220337 -0.147463738918304443 -0.262445747852325439 -0.056776203215122223 -0.028462707996368408 0.220433831214904785 0.010021549649536610 0.130266472697257996 0.259159564971923828 0.133352354168891907
-0.268090754747390747 0.224923059344291687 -0.079027548432350159 -0.074690796434879303 -0.135418191552162170 0.063739784061908722 0.186162576079368591 0.084007792174816132 -0.449370265007019043 -0.353249311447143555
0.087491676211357117 -0.229087591171264648 0.109518572688102722 0.007931579835712910 -0.184628024697303772 0.062450040131807327 -0.326696157455444336 0.266037285327911377 0.106089375913143158 -0.102580033242702484
-0.043076366186141968 0.104138091206550598 0.267517417669296265 -0.324542284011840820 -0.126344889402389526 0.065683834254741669 -0.192507833242416382 0.135987535119056702 -0.164566963911056519 0.113050319254398346
0.032657712697982788 -0.069665007293224335 -0.137723550200462341 -0.034654244780540466 0.008706176653504372 -0.116692110896110535 0.067115835845470428 -0.108383648097515106 -0.083572790026664734 0.047187399119138718
0.061690818518400192 -0.043384797871112823 0.009115083143115044 0.027605667710304260 -0.027141636237502098 0.015681132674217224 0.029983313754200935 0.036550268530845642 -0.002766113495454192 0.014735771343111992
0.190984115004539490 -0.088855728507041931 -0.089550234377384186 -0.268709212541580200 0.136159047484397888 0.014128949493169785 -0.189525544643402100 -0.082884274423122406 -0.154504671692848206 0.040095020085573196
-0.514831960201263428 -0.363793879747390747 -0.313436865806579590 0.193651467561721802 0.107464730739593506 0.055478572845458984 -0.052007205784320831 0.175681442022323608 0.090138182044029236 0.048035394400358200
-0.475037783384323120 -0.029901131987571716 0.057188473641872406 0.085320413112640381 0.090696372091770172 0.081900157034397125 -0.228836685419082642 -0.039653763175010681 0.096389785408973694 -0.160365253686904907
0.000171459381817840 0.121581733226776123 -0.363322257995605469 -0.189027458429336548 -0.060453508049249649 -0.557986378669738770 0.208649814128875732 0.007530699484050274 0.140518188476562500 0.110797941684722900
0.172613441944122314 -0.420828402042388916 -0.131353124976158142 0.060215950012207031 0.137342736124992371 -0.075215168297290802 0.112016439437866211 -0.330291181802749634 0.122544147074222565 -0.140322029590606689
-0.256372988224029541 0.063913114368915558 0.078768983483314514 0.081021331250667572 -0.483514308929443359 0.088778637349605560 0.073313385248184204 -0.043695185333490372 0.082187779247760773 0.048985064029693604
0.068919554352760315 -0.228080362081527710 0.058024588972330093 0.072601273655891418 0.114073961973190308 0.059963252395391464 -0.107969492673873901 0.063368521630764008 0.040946856141090393 -0.472985118627548218
0.019313497468829155 -0.369967758655548096 0.088383264839649200 -0.002947666449472308 0.058262366801500320 0.152444437146186829 -0.190246298909187317 0.013429136015474796 -0.141808182001113892 0.109143309295177460
0.076412737369537354 0.096443064510822296 -0.232751414179801941 0.055080119520425797 -0.382676899433135986 -0.062971167266368866 -0.368187874555587769 -0.083936803042888641 0.034694544970989227 0.119026191532611847
0.033597774803638458 -0.440319538116455078 0.025930605828762054 0.011196511797606945 0.044665127992630005 0.110763609409332275 0.132033586502075195 0.129175126552581787 0.155965164303779602 -0.144735500216484070
0.067756079137325287 -0.077293977141380310 0.089910373091697693 -0.066424064338207245 0.115360796451568604 0.086548082530498505 -0.056926306337118149 0.139177754521369934 -0.093599110841751099 -0.388508588075637817
-0.211293712258338928 -0.027864070609211922 0.025060471147298813 0.080233044922351837 0.100322917103767395 0.071581423282623291 0.062860585749149323 0.083534359931945801 0.050759915262460709 -0.434399694204330444
0.115242026746273041 0.099137336015701294 -0.273381561040878296 -0.406731337308883667 0.261681020259857178 -0.248586803674697876 -0.239567011594772339 -0.153475463390350342 0.140306547284126282 0.106143474578857422
0.134999305009841919 0.112940452992916107 -0.170926451683044434 -0.054197400808334351 0.087142929434776306 -0.051159493625164032 0.247691035270690918 -0.513901531696319580 0.102915219962596893 0.104626104235649109
-0.182226404547691345 -0.151402875781059265 -0.133403345942497253 0.377075105905532837 -0.107000231742858887 -0.127553254365921021 -0.191631004214286804 -0.225554838776588440 0.306706428527832031 -0.120468378067016602
0.384537667036056519 0.114999137818813324 -0.180742114782333374 -0.121656015515327454 0.097087927162647247 -0.055253859609365463 0.310777127742767334 -0.338733404874801636 -0.129382014274597168 -0.229110524058341980
-0.397998839616775513 0.087309189140796661 0.053580194711685181 0.216950371861457825 0.126072794198989868 -0.090061500668525696 0.009654627181589603 0.101033993065357208 -0.330605506896972656 -0.206935673952102661
0.100229725241661072 0.062006972730159760 0.049270577728748322 0.069764852523803711 0.224710702896118164 0.034175422042608261 -0.219738960266113281 0.099787302315235138 -0.186268419027328491 -0.451254397630691528
0.039540160447359085 0.012951331213116646 0.028828764334321022 -0.069099843502044678 -0.061394650489091873 -0.107029065489768982 -0.041062369942665100 0.031273260712623596 0.008537995629012585 -0.024827416986227036
-0.051496651023626328 0.007948028855025768 -0.361814320087432861 -0.062609180808067322 0.274688810110092163 0.094341263175010681 0.031806286424398422 -0.346039474010467529 0.186400771141052246 0.087556861340999603
-0.413896292448043823 0.032360907644033432 -0.011920964345335960 0.040701135993003845 0.015530819073319435 0.046629037708044052 0.014739955775439739 -0.130963414907455444 0.063556507229804993 -0.320686131715774536
0.117537625133991241 0.055409722030162811 -0.049148734658956528 0.027440620586276054 -0.144451960921287537 0.072899281978607178 -0.476168841123580933 0.071119464933872223 0.069795064628124237 0.111341521143913269
-0.041662048548460007 0.049827057868242264 -0.089023634791374207 0.253158032894134521 0.234899595379829407 -0.151335388422012329 -0.120120935142040253 -0.185876861214637756 -0.026696167886257172 -0.171704620122909546
0.241539999842643738 0.070115938782691956 0.171055555343627930 -0.121204718947410583 -0.166809290647506714 -0.233930975198745728 -0.244965031743049622 0.144510895013809204 -0.101898536086082458 -0.002282100263983011
0.032073710113763809 -0.079538665711879730 0.208153709769248962 0.119528204202651978 0.082212403416633606 -0.414683461189270020 -0.066993489861488342 -0.300272077322006226 0.084498450160026550 0.035351511090993881
0.071420855820178986 -0.310798704624176025 0.032275397330522537 0.025046596303582191 0.055004891008138657 0.043895982205867767 0.027158657088875771 0.060391861945390701 -0.325326740741729736 -0.295621275901794434
0.033311143517494202 0.088788025081157684 -0.011989193037152290 0.105602845549583435 -0.359193593263626099 -0.071147285401821136 -0.178399205207824707 0.311278283596038818 0.122308067977428436 -0.156913787126541138
0.110113084316253662 0.031606689095497131 0.195133149623870850 -0.097253702580928802 -0.241547256708145142 -0.254365265369415283 0.252084225416183472 -0.030914498493075371 0.152496814727783203 -0.282349795103073120
-0.312761753797531128 0.007776512764394283 0.103869035840034485 -0.096062436699867249 0.150999739766120911 -0.052610501646995544 0.204164072871208191 -0.451977014541625977 -0.012183010578155518 -0.112395912408828735
-0.223961517214775085 0.209398180246353149 -0.360764712095260620 -0.141216486692428589 0.145282998681068420 0.113863490521907806 -0.319648116827011108 0.271251261234283447 0.076015532016754150 -0.341546595096588135
0.070707432925701141 0.063290067017078400 0.024104850366711617 0.058468166738748550 0.159414723515510559 -0.051646001636981964 -0.369716972112655640 0.151407167315483093 0.084114149212837219 -0.159661725163459778
-0.093885727226734161 0.008965403772890568 -0.086495131254196167 -0.069789052009582520 -0.105956055223941803 0.082292631268501282 0.051830783486366272 0.069349400699138641 0.068587772548198700 0.091488376259803772
0.157219350337982178 -0.358199596405029297 0.140996858477592468 -0.204545512795448303 0.113022103905677795 -0.028289778158068657 0.241195201873779297 -0.452950477600097656 -0.005851552821695805 -0.387459605932235718
0.094030432403087616 -0.144415616989135742 0.012526982463896275 -0.007551717106252909 -0.365632951259613037 -0.058263644576072693 0.054402034729719162 0.132438540458679199 -0.029458675533533096 0.049346879124641418
0.073566965758800507 -0.243669286370277405 -0.085825897753238678 -0.358905464410781860 0.194681271910667419 -0.053863342851400375 -0.109096318483352661 -0.115859374403953552 0.133764162659645081 -0.349071443080902100
-0.064540468156337738 0.074125692248344421 0.335447430610656738 -0.051800936460494995 -0.362550079822540283 -0.126195833086967468 0.223508283495903015 -0.140423521399497986 0.090602628886699677 -0.352338284254074097
-0.062824681401252747 -0.108473345637321472 -0.231486290693283081 0.098631627857685089 -0.098687872290611267 0.338188737630844116 0.129530861973762512 -0.404195010662078857 -0.052546497434377670 -0.332286298274993896
0.097989991307258606 0.118875287473201752 -0.297328263521194458 0.127096101641654968 -0.241815835237503052 -0.121425658464431763 -0.054672535508871078 0.064648412168025970 0.038520455360412598 0.036148644983768463
0.108371593058109283 -0.006192384287714958 0.001400976325385273 0.027565425261855125 -0.029289271682500839 0.038279291242361069 0.061288565397262573 -0.030672058463096619 -0.024275116622447968 -0.054197464138269424
-0.282209694385528564 -0.098463468253612518 0.175714090466499329 0.058562286198139191 -0.063034154474735260 0.142574384808540344 0.100486405193805695 -0.276369154453277588 -0.365249127149581909 0.230350852012634277
0.197699382901191711 -0.056206747889518738 0.492469400167465210 -0.419894903898239136 -0.370528906583786011 -0.103067472577095032 -0.277956485748291016 -0.142802923917770386 0.156069412827491760 -0.451890408992767334
0.037350993603467941 -0.294343262910842896 0.200237333774566650 -0.169854387640953064 0.225173756480216980 0.098144114017486572 0.124881543219089508 -0.266180515289306641 -0.025087231770157814 -0.503027081489562988
0.048761334270238876 -0.360090464353561401 0.076118625700473785 0.169647499918937683 -0.297878712415695190 0.147133201360702515 -0.067172683775424957 0.068200767040252686 0.079550534486770630 0.141233846545219421
-0.064561329782009125 -0.056462783366441727 -0.077862948179244995 0.087053351104259491 -0.077285014092922211 -0.086985804140567780 0.005118791479617357 -0.090998105704784393 0.041615337133407593 -0.062078997492790222
0.095658339560031891 -0.299078822135925293 0.029703410342335701 0.049455128610134125 -0.069661557674407959 0.112591326236724854 -0.054230716079473495 -0.059182550758123398 0.034971125423908234 -0.365233004093170166
-0.424048990011215210 0.107911400496959686 -0.207293182611465454 0.056996818631887436 0.147188454866409302 0.141152769327163696 -0.164874374866485596 0.144679084420204163 0.040542602539062500 -0.029473168775439262
0.155775979161262512 -0.186409756541252136 0.057706471532583237 0.172282561659812927 -0.023476593196392059 0.140015527606010437 -0.293448746204376221 -0.112138271331787109 -0.263610869646072388 0.295273959636688232
-0.120960280299186707 0.071074649691581726 -0.299338191747665405 0.138193413615226746 -0.133010223507881165 0.075959838926792145 0.086416237056255341 -0.285843133926391602 0.165421932935714722 -0.079127840697765350
0.145282357931137085 0.025921067222952843 0.121784441173076630 0.065660439431667328 0.134479135274887085 -0.042509149760007858 -0.472422033548355103 -0.113070264458656311 -0.261009156703948975 0.139035344123840332
-0.104411110281944275 0.118734136223793030 -0.032687272876501083 -0.019533401355147362 -0.084108181297779083 -0.029995849356055260 -0.074274837970733643 -0.004577565006911755 -0.063380427658557892 -0.209714636206626892
0.172294870018959045 0.104443490505218506 -0.062140185385942459 -0.372119069099426270 -0.089469857513904572 -0.195344075560569763 -0.296088218688964844 0.151050165295600891 -0.145647779107093811 0.103850573301315308
-0.256235003471374512 0.041204836219549179 0.032951541244983673 -0.137156307697296143 0.177052140235900879 0.215796232223510742 0.070484958589076996 -0.203024178743362427 0.225817456841468811 -0.281703412532806396
-0.044347334653139114 -0.115168996155261993 -0.148655459284782410 0.185059070587158203 -0.337366700172424316 0.129407092928886414 -0.364062726497650146 -0.084980070590972900 0.318420171737670898 -0.023135067895054817
0.274686455726623535 0.158855617046356201 -0.347851634025573730 -0.277690470218658447 -0.002070514252409339 -0.354111701250076294 -0.003127142786979675 -0.050484210252761841 -0.114167608320713043 -0.020279394462704659
0.072076350450515747 -0.239092588424682617 0.061126321554183960 0.071371726691722870 0.053202990442514420 0.093533150851726532 0.085758194327354431 0.052387505769729614 -0.264797240495681763 0.135351255536079407
0.043314032256603241 0.089654639363288879 -0.237039625644683838 0.188399344682693481 -0.313687354326248169 0.041169714182615280 0.076380744576454163 -0.164943769574165344 0.049720339477062225 0.102444909512996674
0.264365792274475098 -0.231987953186035156 -0.020070429891347885 -0.298449248075485229 -0.033383104950189590 0.124785691499710083 0.079523093998432159 0.164831668138504028 0.025342445820569992 0.150236383080482483
0.044684376567602158 0.085616193711757660 -0.357076913118362427 0.085830718278884888 -0.249867126345634460 0.069800220429897308 -0.042692974209785461 -0.009682044386863708 -0.226488262414932251 0.005970724858343601
-0.123524941504001617 -0.131910651922225952 -0.190228804945945740 -0.055605083703994751 -0.326473921537399292 -0.124260969460010529 0.006985838990658522 0.112705200910568237 0.298056453466415405 0.276775091886520386
0.120563223958015442 0.165808245539665222 -0.129378005862236023 -0.039927203208208084 -0.171807169914245605 0.161701723933219910 -0.310542553663253784 -0.062462046742439270 -0.060104805976152420 0.169751569628715515
0.201849818229675293 0.047308251261711121 -0.414867907762527466 -0.089676931500434875 0.025355387479066849 -0.022747695446014404 -0.322124063968658447 0.123067446053028107 0.031320385634899139 0.105311192572116852
-0.079886071383953094 0.156325757503509521 -0.211238950490951538 0.055778056383132935 0.011663793586194515 0.076214961707592010 -0.040612041950225830 0.129451945424079895 0.033355109393596649 -0.422613978385925293
-0.541611790657043457 0.079190589487552643 0.216391026973724365 0.008171161636710167 -0.160843878984451294 -0.080860972404479980 -0.067957319319248199 0.180889114737510681 -0.050632402300834656 -0.049080595374107361
-0.221990823745727539 -0.217174589633941650 -0.268486708402633667 -0.348129779100418091 -0.087138988077640533 0.140760093927383423 0.238469675183296204 0.120115861296653748 -0.201366916298866272 0.283112198114395142
0.105807952582836151 0.070723995566368103 -0.059394601732492447 -0.175300776958465576 0.221103340387344360 -0.158779039978981018 -0.096200808882713318 0.239543229341506958 -0.328399717807769775 0.141510069370269775
-0.424491435289382935 0.170375213027000427 0.198881521821022034 -0.078443668782711029 -0.290272802114486694 0.037636175751686096 0.085918113589286804 0.067081943154335022 -0.033366508781909943 0.126501336693763733
0.008436327800154686 0.081372953951358795 -0.084895700216293335 -0.077655859291553497 -0.051394775509834290 -0.016284590587019920 0.091045238077640533 -0.077578112483024597 -0.002192403655499220 -0.069522969424724579
-0.217611044645309448 -0.284479677677154541 0.190630868077278137 -0.198151603341102600 0.028997961431741714 0.125813171267509460 -0.133347094058990479 -0.357825696468353271 0.095586404204368591 0.307425320148468018
0.093662992119789124 -0.000126852522953413 -0.077047616243362427 -0.095982715487480164 -0.072219036519527435 0.079627715051174164 -0.029099207371473312 -0.116813458502292633 0.047132287174463272 -0.096539340913295746
0.070131711661815643 -0.435102075338363647 0.121512748301029205 0.065608046948909760 -0.020604541525244713 0.013486510142683983 0.179074987769126892 -0.177810341119766235 -0.331263005733489990 -0.148356214165687561
0.007883252575993538 0.026724250987172127 -0.234201461076736450 -0.412702292203903198 -0.024775050580501556 0.273084878921508789 0.177674159407615662 0.176099970936775208 -0.021065264940261841 0.033217839896678925
-0.102568820118904114 0.004820633213967085 -0.382670581340789795 -0.182489827275276184 0.208267107605934143 -0.239864856004714966 0.022783393040299416 0.217530310153961182 0.083797059953212738 -0.001778395031578839
-0.349420130252838135 0.008276601321995258 -0.250743418931961060 0.212810233235359192 -0.055451255291700363 0.026752376928925514 0.216173201799392700 -0.267840743064880371 -0.252080857753753662 0.018558461219072342
-0.220509395003318787 -0.299481838941574097 0.139618322253227234 0.209938511252403259 -0.172180265188217163 -0.162445217370986938 0.157221868634223938 -0.327727675437927246 0.280016988515853882 -0.088119424879550934
0.001812023459933698 0.051125612109899521 0.036740787327289581 -0.062988199293613434 -0.078699186444282532 0.009602320380508900 0.058703370392322540 -0.092880219221115112 -0.041027989238500595 -0.044154286384582520
-0.192867532372474670 -0.029469938948750496 -0.027779921889305115 -0.028864821419119835 0.059913940727710724 -0.004486680030822754 -0.159539267420768738 0.009184835478663445 -0.034875016659498215 0.011276337318122387
0.093439318239688873 0.072622783482074738 0.147877246141433716 0.091067589819431305 -0.155085071921348572 0.163597509264945984 -0.090582266449928284 -0.381383091211318970 0.126256883144378662 -0.077113851904869080
0.139446198940277100 0.124372057616710663 -0.132974445819854736 -0.301598876714706421 -0.303909093141555786 0.059530053287744522 -0.084968760609626770 -0.099842496216297150 0.093487240374088287 0.102259799838066101
0.143852517008781433 -0.345387220382690430 0.020257698372006416 -0.176972150802612305 -0.025076938793063164 -0.418131709098815918 -0.186387091875076294 -0.062324069440364838 0.155502364039421082 0.285981446504592896
-0.020513964816927910 -0.090500712394714355 -0.083667628467082977 0.099911980330944061 0.005418014712631702 -0.051865663379430771 -0.095550172030925751 -0.085864879190921783 -0.056901577860116959 0.052296929061412811
0.144047290086746216 -0.244706153869628906 0.226687029004096985 -0.128861650824546814 -0.461722910404205322 -0.029836764559149742 0.270074754953384399 -0.266686022281646729 0.153081640601158142 0.009723517112433910
0.075291596353054047 -0.018954563885927200 0.001068309647962451 -0.007351493462920189 -0.029430301859974861 -0.026028605177998543 -0.098308667540550232 -0.096744142472743988 0.001162481727078557 0.040078207850456238
0.289866983890533447 -0.318386912345886230 0.080020688474178314 -0.095054246485233307 0.272719353437423706 -0.111729674041271210 -0.049171760678291321 -0.043500967323780060 -0.279356777667999268 -0.175435155630111694
0.052418734878301620 0.085881702601909637 -0.041006166487932205 -0.104615405201911926 0.067742556333541870 -0.027558878064155579 -0.006771613843739033 -0.015290842391550541 -0.025771694257855415 0.036462802439928055
0.109558910131454468 -0.150692552328109741 0.162810400128364563 -0.462627679109573364 0.027873057872056961 0.245024740695953369 0.025646362453699112 -0.254666298627853394 0.149431064724922180 -0.479205042123794556
-0.055760666728019714 -0.043694298714399338 0.058560568839311600 0.042168393731117249 0.054570533335208893 0.037606827914714813 -0.111952193081378937 0.076733738183975220 0.008324693888425827 -0.089805975556373596
-0.099487692117691040 0.140967383980751038 0.239134877920150757 -0.162850365042686462 -0.462325990200042725 0.015996299684047699 0.051875796169042587 -0.091993212699890137 0.441138952970504761 -0.059414982795715332
0.139337807893753052 -0.125119924545288086 0.159456744790077209 -0.354380726814270020 -0.209646418690681458 -0.049354121088981628 0.531625568866729736 -0.244135722517967224 -0.048790499567985535 0.085163891315460205
-0.237677812576293945 -0.366435229778289795 0.059418361634016037 0.153738096356391907 0.123423106968402863 -0.043549340218305588 0.084403954446315765 0.050933819264173508 -0.008601450361311436 -0.180794119834899902
0.123138509690761566 0.037245232611894608 0.092820882797241211 0.108789660036563873 -0.114435069262981415 0.141612932085990906 0.038369871675968170 -0.132598385214805603 -0.210670575499534607 -0.231051713228225708
-0.123601198196411133 0.189482972025871277 -0.157784461975097656 -0.053922940045595169 0.135329276323318481 -0.016709201037883759 0.385436505079269409 0.251656115055084229 -0.178110986948013306 -0.189794644713401794
-0.080705225467681885 0.034540943801403046 0.032078478485345840 -0.103332534432411194 0.047014433890581131 -0.084199145436286926 0.025214403867721558 -0.122556179761886597 -0.051986459642648697 -0.039654888212680817
-0.123067058622837067 0.143599480390548706 0.032092813402414322 -0.435582935810089111 -0.096834942698478699 -0.317631930112838745 -0.175907835364341736 0.213652625679969788 0.311691105365753174 -0.053533621132373810
0.046836283057928085 0.122137241065502167 0.082591161131858826 -0.138565406203269958 0.073554150760173798 0.091543614864349365 -0.093657836318016052 -0.007280517835170031 -0.413573265075683594 0.093870870769023895
0.029083628207445145 0.027844568714499474 -0.019614784047007561 -0.052467171102762222 0.083857014775276184 -0.092984601855278015 -0.093612983822822571 -0.018193662166595459 -0.010245793499052525 -0.091426625847816467
0.073231011629104614 -0.147236928343772888 0.099079594016075134 0.080359093844890594 0.021571647375822067 0.093663990497589111 -0.027846645563840866 0.077143371105194092 -0.577853560447692871 -0.315003365278244019
0.047230701893568039 0.052564069628715515 0.046427037566900253 0.083353996276855469 0.103609926998615265 0.083439946174621582 0.072422608733177185 0.058920189738273621 -0.513264119625091553 -0.348765909671783447
0.014480110257863998 0.033767398446798325 0.078577287495136261 -0.056163884699344635 0.016685934737324715 -0.111669287085533142 -0.071351073682308197 0.085737347602844238 -0.093582071363925934 0.085020124912261963
0.021473392844200134 -0.016017226502299309 -0.054041747003793716 -0.061001524329185486 0.039551783353090286 0.053921785205602646 0.062020771205425262 0.109161600470542908 -0.037374723702669144 -0.003459639847278595
-0.181383714079856873 -0.213542461395263672 0.194349855184555054 -0.305593997240066528 0.214472487568855286 -0.325309276580810547 0.201867371797561646 0.043708592653274536 -0.153976619243621826 -0.032231684774160385
-0.050391517579555511 0.091351382434368134 -0.010635691694915295 -0.097683511674404144 -0.082944363355636597 -0.026413097977638245 -0.133873865008354187 -0.106246158480644226 -0.065605022013187408 -0.100067488849163055
0.127017423510551453 -0.384494900703430176 0.092380009591579437 -0.118382394313812256 -0.155643060803413391 -0.068214446306228638 -0.111949615180492401 -0.153629422187805176 0.141634330153465271 0.038174401968717575
-0.288665831089019775 -0.262147903442382812 -0.235412552952766418 -0.458257466554641724 0.035308770835399628 0.005497027654200792 0.102009110152721405 0.204749926924705505 -0.286521315574645996 0.045033000409603119
-0.455114990472793579 0.135160848498344421 0.326909363269805908 0.006945588625967503 -0.295569926500320435 -0.038326058536767960 0.015122868120670319 -0.203886151313781738 -0.129948213696479797 0.145901769399642944
-0.271133184432983398 -0.483713358640670776 0.121961697936058044 0.126537263393402100 0.103710293769836426 0.057935256510972977 0.118873767554759979 -0.138388097286224365 -0.047606784850358963 0.194791942834854126
0.124654501676559448 0.154722645878791809 0.219305947422981262 -0.262279272079467773 0.060302063822746277 -0.295129984617233276 0.174444079399108887 0.093854770064353943 -0.191414102911949158 0.042460218071937561
0.118491612374782562 0.109632939100265503 0.046820804476737976 -0.323244541883468628 -0.021682756021618843 -0.122060731053352356 -0.058942988514900208 -0.094656407833099365 0.129856407642364502 0.151383414864540100
-0.490186929702758789 0.079171843826770782 0.093422971665859222 0.117495581507682800 0.160763144493103027 -0.124646104872226715 0.082004025578498840 -0.084824472665786743 -0.130685329437255859 0.045715548098087311
-0.166837230324745178 -0.164359480142593384 -0.395375013351440430 0.127527862787246704 -0.223856195807456970 0.202777683734893799 -0.013759342022240162 -0.089298985898494720 0.180608436465263367 0.110077053308486938
0.155538991093635559 -0.080939903855323792 -0.066755093634128571 -0.227687209844589233 0.164876297116279602 -0.192111819982528687 -0.083031535148620605 0.224324315786361694 -0.304572731256484985 0.194528728723526001
0.090219616889953613 0.092816233634948730 -0.080817192792892456 0.071422785520553589 -0.287338435649871826 -0.432112514972686768 -0.021284878253936768 -0.235709428787231445 0.151476830244064331 0.126955077052116394
0.137105837464332581 0.080576047301292419 -0.502678930759429932 -0.017967529594898224 -0.289863049983978271 -0.214770644903182983 0.238550066947937012 0.204720214009284973 0.119837641716003418 0.100566811859607697
0.038692507892847061 0.180416837334632874 -0.029280299320816994 0.226151764392852783 -0.163602054119110107 -0.374805450439453125 0.127483546733856201 -0.218450814485549927 0.094402916729450226 0.047937117516994476
0.068542890250682831 0.334611266851425171 -0.301995605230331421 -0.178400531411170959 -0.390018761157989502 -0.097584426403045654 -0.039718098938465118 -0.240366220474243164 0.205245852470397949 -0.154006347060203552
0.148271381855010986 0.099781870841979980 0.209334477782249451 -0.099323362112045288 -0.111686982214450836 0.106295384466648102 0.130512118339538574 -0.108157746493816376 0.098021216690540314 -0.301453262567520142
0.024910468608140945 0.031652364879846573 -0.072860524058341980 -0.125367775559425354 0.045501518994569778 -0.053568057715892792 -0.114980719983577728 -0.005698239896446466 -0.071335941553115845 -0.013223885558545589
-0.574607133865356445 -0.175291657447814941 -0.045314755290746689 0.011054033413529396 0.163987457752227783 0.004555919673293829 0.145054876804351807 0.144189730286598206 0.067831724882125854 0.032940242439508438
-0.114419415593147278 -0.251910597085952759 -0.168563365936279297 0.148101150989532471 -0.028837248682975769 0.186581715941429138 -0.013944248668849468 0.152621597051620483 -0.147570297122001648 0.184443682432174683
0.189783334732055664 -0.273307710886001587 -0.232781618833541870 0.050338208675384521 -0.024711025878787041 0.120348073542118073 -0.028752889484167099 0.140123695135116577 0.047147233039140701 0.095413498580455780
-0.043435864150524139 -0.323348164558410645 -0.002171732485294342 0.220520794391632080 0.021959701552987099 -0.307069927453994751 -0.166859120130538940 -0.022122802212834358 0.195788860321044922 0.080375812947750092
-0.106571719050407410 -0.361681491136550903 0.260869055986404419 0.063072733581066132 0.149123892188072205 -0.274850487709045410 -0.121563196182250977 0.118506148457527161 0.155568256974220276 -0.156674697995185852
-0.103633329272270203 0.204642429947853088 -0.150297611951828003 -0.267006605863571167 0.003416062798351049 -0.134137526154518127 0.220973074436187744 -0.183902814984321594 -0.199063763022422791 0.152051061391830444
